tree
version=v4
num_class=1
num_tree_per_iteration=1
label_index=0
max_feature_idx=27
objective=lambdarank
feature_names=price_usd ram_gb storage_gb camera_mp battery_mah display_size_inch charging_watt 5g_support rating brand_Apple brand_Google brand_Infinix brand_OnePlus brand_Oppo brand_Realme brand_Samsung brand_Vivo brand_Xiaomi os_Android os_iOS processor_A18_Pro processor_Dimensity_9300 processor_Exynos_2400 processor_Helio_G99 processor_Snapdragon_6_Gen_1 processor_Snapdragon_7__Gen_2 processor_Snapdragon_8_Gen_3 processor_Tensor_G4
feature_infos=[101:1499] [4:16] [64:1024] [12:200] [4000:6000] [5.5:7.2000000000000002] [18:120] [0:1] [3.5:5] [0:1] [0:1] [0:1] [0:1] [0:1] [0:1] [0:1] [0:1] [0:1] [0:1] [0:1] [0:1] [0:1] [0:1] [0:1] [0:1] [0:1] [0:1] [0:1]
tree_sizes=2907 2924 3151 2821 2933 3045 2820 2940 2931 2822 3041 2836 2827 3056 2948 3053 3049 3137 2946 2940 3060 3059 2940 2938 2932 3151 3038 3058 2926 2936 3045 2839 2946 2923 2943 2837 3076 2860 3059 2949 2957 3062 3075 3075 2745 3184 2955 3198 3304 2854 2863 2858 3072 3078 3086 3417 3417 3187 3090 3314 3304 3088 3516 3072 3307 3428 3545 3079 3308 2984 3416 3091 3304 3219 3428 3522 3214 3310 3215 3346 3459 3557 3764 3338 3232 3573 3344 3239 3332 3441 3229 3561 3343 3349 3239 3246 3228 3134 3241 3580 4140 3246 3363 3356 3698 3137 3582 3592 3466 3484 3722 3139 3707 3368 3366 3712 3365 3598 3149 3160 3156 3387 3283 3046 3276 3614 3269 3284 3166 3615 3173 3280 3484 3056 2713 3179 3411 2852 2948 3289 2956 3290 2726 2841 3068 2716 2603 3292 3404 2840 2378 2853 2608 3534 2284 2287 3628 2722 3310 2273 2280 2408 3426 2291 2278 2507 2509 3193 2392 2959 2173 2500 2392 2272 2515 2165 2620 2278 2518 2168 2049 2173 2172 2291 2406 2398 2289 2175 2285 2282 1949 2075 1832 2281 2286 1952 2411 1711 2079 1838 2183 1734 1961 2078 1734 2067 2419 2069 1730 2312 1724 1843 1836 2189 1731 1965 1731 1970 1731 1956 1620 1963 1514 1734 1728 1849 1613 1620 1499 1618 1509 1726 1733 1617 1618 1618 1839 1616 1506 1620 1501 1503 1619 1504 1505 1388 1277 1502 1500 1388 1288 1619 1506 1503 1166 1504 1386 1282 1167 1391 1391 1278 1284 1164 1161 1388 1166 1280 1279 1050 1053 1278 1165 1162 1281 1174 1161 1170 1054 1055 1163 1170 1168 1164 1160 1056 1059 1052 1161 1170 1162 1051 1055 941 1048 1053 943 944 945 940

Tree=0
num_leaves=26
num_cat=0
split_feature=4 8 8 1 1 0 3 3 0 3 0 4 0 1 0 8 0 8 0 0 8 4 5 8 0
split_gain=9.46076 4.23532 2.38356 1.7632 1.24336 0.880595 0.504802 0.493957 0.493589 0.457407 0.439891 0.333403 0.253809 0.087918 0.108635 0.0715254 0.063509 0.0499714 0.00361856 0.0033913 0.00269169 0.00190111 0.000181214 4.35233e-05 3.59527e-07
threshold=5250.0000000000009 4.1500000000000012 4.7500000000000009 10.000000000000002 14.000000000000002 1007.5000000000001 57.000000000000007 154.00000000000003 630.00000000000011 86.000000000000014 833.50000000000011 5750.0000000000009 183.50000000000003 10.000000000000002 316.50000000000006 3.9500000000000006 473.50000000000006 3.9500000000000006 819.00000000000011 1007.5000000000001 4.2500000000000009 4750.0000000000009 6.3500000000000005 4.2500000000000009 1256.5000000000002
decision_type=2 2 2 2 2 2 2 2 2 2 2 2 2 2 2 2 2 2 2 2 2 2 2 2 2
left_child=2 3 4 12 7 -4 10 16 -9 -6 -3 -5 -2 14 -8 19 17 -1 20 -14 22 23 -18 24 -20
right_child=1 6 5 11 9 -7 13 8 -10 -11 -12 -13 15 -15 -16 -17 18 -19 21 -21 -22 -23 -24 -25 -26
leaf_value=-0.095990353585068564 -0.022017009544048591 0.07136945121390971 0.062004222045077384 -0.003048379978064196 -0.048357455822314627 -0.038986088190065986 0.096476493050290241 0.017852164226804308 -0.077951334846882991 0.027195185659660049 0.0029876188650110728 0.053284890340613136 -0.089440508239595165 0.097770967558442903 0.061358968247264938 -0.057365937734762222 -0.097232036616240497 -0.068414418968072419 -0.099904204919073814 -0.098144231380627014 -0.089937326377277804 -0.09512640558805624 -0.095157196781186545 -0.099211790182565346 -0.099999999999999478
leaf_weight=0.26372601033654186 0.23672828846611071 0.73506804881617449 0.54668653407134105 0.45975068886764325 0.42239747149869789 0.35668498440645635 0.41837549395859253 0.22329793754033733 0.33787158597260714 0.38104621111415327 0.34582761349156499 0.61265494930557907 0.23705421818885952 1.5434332133736461 0.46497191779781133 0.19626714149489999 0.2170962836826219 0.43570598936639726 0.20653235795907654 0.21201106056105345 0.28538245405070484 0.34341115946881473 0.20423768321052194 0.40687221265397966 0.18629298615269363
leaf_count=34 7 59 56 41 58 35 19 25 46 33 50 39 32 47 45 34 31 51 36 36 33 54 30 45 24
internal_value=-4.24436e-10 0.0450471 -0.0510778 -0.0139359 -0.0679749 0.0221295 0.0779123 -0.0822979 -0.0398297 -0.0125254 0.049491 0.0291343 -0.0663004 0.0905713 0.0779915 -0.082545 -0.0916465 -0.0788121 -0.0964992 -0.0935497 -0.0936867 -0.098238 -0.0962263 -0.0995742 -0.0999496
internal_weight=10.2794 5.46214 4.81724 1.95447 3.91387 0.903372 3.50768 3.11043 0.56117 0.803444 1.0809 1.07241 0.882061 2.42678 0.883347 0.645332 2.54926 0.699432 1.84983 0.449065 0.706716 1.14311 0.421334 0.799698 0.392825
internal_count=1000 409 591 189 500 91 220 409 71 91 109 80 109 111 64 102 338 85 253 68 94 159 61 105 60
is_linear=0
shrinkage=0.05


Tree=1
num_leaves=26
num_cat=0
split_feature=4 8 1 0 1 3 8 0 0 0 8 1 0 1 5 5 1 8 1 8 8 0 4 8 0
split_gain=20.2863 12.3125 7.26278 3.32137 1.172 0.319614 0.601473 0.161815 0.0739761 0.0530416 0.0356702 0.0286818 0.00449838 0.0111521 0.00177982 0.00173939 0.0016107 0.00113934 0.00103328 0.000335355 1.56111e-05 3.39588e-06 3.40113e-06 3.10806e-07 2.01529e-07
threshold=5250.0000000000009 4.1500000000000012 10.000000000000002 641.00000000000011 14.000000000000002 154.00000000000003 4.5500000000000007 1061.5000000000002 520.50000000000011 254.50000000000003 4.9500000000000011 10.000000000000002 659.00000000000011 14.000000000000002 6.0500000000000007 5.9500000000000011 10.000000000000002 4.7500000000000009 14.000000000000002 4.4500000000000011 3.9500000000000006 819.00000000000011 4750.0000000000009 4.2500000000000009 1152.0000000000002
decision_type=2 2 2 2 2 2 2 2 2 2 2 2 2 2 2 2 2 2 2 2 2 2 2 2 2
left_child=5 8 3 9 -4 10 11 -5 -2 -3 12 -7 13 15 -10 -1 -16 18 21 20 -17 -14 23 24 -23
right_child=1 2 4 7 -6 6 -8 -9 14 -11 -12 -13 17 -15 16 19 -18 -19 -20 -21 -22 22 -24 -25 -26
leaf_value=-0.087721565228934928 -0.069211099826061315 0.031414205662287899 0.049441286793179773 -0.059412321729692068 0.086281687251506617 -0.09366902929052652 -0.0055439847664188989 -0.095494906611977862 -0.090360602767890943 0.016331803578209663 -0.074248626056899567 -0.074241322217744085 -0.091475832239722332 -0.080298634300870239 -0.091955583018583323 -0.091399050698177664 -0.09585128008913639 -0.094651658970611077 -0.094217693455768123 -0.093823339506752521 -0.091908605041122637 -0.091185751285666375 -0.091424712649629342 -0.091282233807544078 -0.091252103777984761
leaf_weight=0.27530540083535304 0.40821233880706032 1.0440682386979458 3.521390261128543 0.60495711443945743 5.5792975290678442 0.40673937834799267 0.35142162349075079 0.63883066084235907 0.39837781176902343 1.3198128188960252 0.33999494463205326 0.35648264759220183 0.38831518264487419 0.29772561136633147 0.44818828906863906 0.30453012464568019 0.65032207779586315 0.46996468538418401 0.39052585745230306 0.25201126281172037 0.29681693320162594 0.22628992190584518 0.4005733635276556 0.34341280348598957 0.23151441570371389
leaf_count=30 45 21 46 34 42 44 33 37 45 40 24 36 52 35 58 40 41 33 39 26 40 30 54 45 30
internal_value=-5.63878e-09 0.0304583 0.0482281 -0.0118064 0.0720268 -0.0834833 -0.0596719 -0.077945 -0.0880783 0.0229933 -0.0897772 -0.0845948 -0.091139 -0.0889067 -0.0932236 -0.0911773 -0.0942618 -0.0924384 -0.0919133 -0.0922922 -0.0916506 -0.0913473 -0.0913058 -0.0912463 -0.0912193
internal_weight=19.9451 14.6135 12.7084 3.60767 9.10069 5.33162 1.11464 1.24379 1.9051 2.36388 4.21698 0.763222 3.87699 1.42639 1.49689 1.12866 1.09851 2.4506 1.98063 0.853358 0.601347 1.59011 1.20179 0.801217 0.457804
internal_count=1000 409 220 132 88 591 113 71 189 61 478 80 454 171 144 136 99 283 250 106 80 211 159 105 60
is_linear=0
shrinkage=0.05


Tree=2
num_leaves=28
num_cat=0
split_feature=4 8 1 8 0 1 3 4 0 1 0 3 0 8 3 1 0 4 1 6 8 1 0 8 0 0 0
split_gain=20.36 10.6661 3.79284 1.80529 1.57201 0.666978 0.0640503 0.121769 0.0262595 0.00869916 0.00703129 0.00194052 0.00412331 0.00122094 0.000729069 0.00105279 0.000507975 0.000393794 0.000898677 0.000129196 0.000307633 0.000253087 3.02103e-05 2.51163e-05 1.57797e-05 4.52249e-06 1.9358e-07
threshold=5250.0000000000009 4.1500000000000012 14.000000000000002 4.8500000000000005 641.00000000000011 10.000000000000002 154.00000000000003 4750.0000000000009 365.00000000000006 7.0000000000000009 1066.0000000000002 86.000000000000014 513.50000000000011 4.8500000000000005 86.000000000000014 10.000000000000002 909.50000000000011 4750.0000000000009 10.000000000000002 25.500000000000004 4.6500000000000012 14.000000000000002 477.50000000000006 3.7500000000000004 884.50000000000011 803.50000000000011 1126.5000000000002
decision_type=2 2 2 2 2 2 2 2 2 2 2 2 2 2 2 2 2 2 2 2 2 2 2 2 2 2 2
left_child=6 8 3 4 -3 10 11 9 -2 -8 -6 13 -13 17 15 23 -14 19 24 -1 21 22 -21 -10 -19 -24 -27
right_child=1 2 -4 -5 5 -7 7 -9 14 -11 -12 12 16 -15 -16 -17 -18 18 -20 20 -22 -23 25 -25 -26 26 -28
leaf_value=-0.085108065245064618 -0.068605973489542754 0.023171922687988806 0.075623574164359567 0.062287574388997638 -0.079148772483688498 -0.011464326518885978 -0.088923052042379061 -0.044646725377518341 -0.085547672723050472 -0.077585947294129015 -0.089842991971878366 -0.07699463871253677 -0.083521744980264656 -0.088880368563773834 -0.084846492930617634 -0.08904904020093489 -0.086425480477458766 -0.085944592502823783 -0.08243743734418009 -0.085920355709607626 -0.087557527344279976 -0.087032018597982458 -0.085466072228520207 -0.086219046226432519 -0.085457132892130583 -0.085206218302417994 -0.085264093885958722
leaf_weight=0.41626310255378873 0.23278989898972113 2.0646544620394693 6.5600023979786783 1.5212695777881888 0.28762500733137109 0.62030225526541471 0.31664770748466242 0.3005256827455014 0.27473949920386054 0.36338393413461745 0.33010025415569544 0.20585502870380867 0.26504181791096926 0.29834280628710974 0.38742242008447636 0.49950746074318886 0.34886312717571855 0.3604156607761978 0.30305978911928833 0.2725320281460879 0.29657206032425154 0.32538932748138893 0.33774236589670181 0.2825917424634099 0.3078067135065794 0.28277106862515211 0.29542851354926825
leaf_count=45 32 58 42 45 30 15 30 41 30 42 30 29 30 30 47 49 37 40 38 30 29 36 37 31 34 31 32
internal_value=-1.60405e-09 0.0335322 0.0508747 0.0172192 -0.00354006 -0.0480875 -0.0826872 -0.0711516 -0.08419 -0.0828649 -0.0848636 -0.0853079 -0.0831184 -0.0858213 -0.0867019 -0.0873821 -0.0851718 -0.0855359 -0.0846958 -0.0859023 -0.086085 -0.0857965 -0.0854582 -0.0858881 -0.0857201 -0.0853207 -0.0852358
internal_weight=18.3576 13.061 11.384 4.82395 3.30268 1.23803 5.29664 0.980557 1.67705 0.680032 0.617725 4.31608 0.81976 3.49632 1.44426 1.05684 0.613905 3.19798 0.971282 2.2267 1.81044 1.51386 1.18847 0.557331 0.668222 0.915942 0.5782
internal_count=1000 409 220 178 133 75 591 113 189 72 60 478 96 382 157 110 67 352 112 240 195 166 130 61 74 100 63
is_linear=0
shrinkage=0.05


Tree=3
num_leaves=25
num_cat=0
split_feature=4 8 3 0 8 2 3 3 4 0 8 3 8 3 1 4 8 1 1 8 0 8 0 5
split_gain=17.6774 8.93975 3.07003 1.65727 1.06625 0.183259 0.111085 0.0312964 0.0649879 0.0149443 0.0035119 0.00119989 0.00261437 0.000480831 0.000638795 0.000276494 0.000628589 0.000622443 0.000207222 3.57861e-05 2.22821e-05 1.60668e-05 3.14845e-06 1.56684e-07
threshold=5250.0000000000009 4.1500000000000012 57.000000000000007 526.50000000000011 4.5500000000000007 384.00000000000006 154.00000000000003 154.00000000000003 4750.0000000000009 365.00000000000006 4.3500000000000005 86.000000000000014 4.2500000000000009 86.000000000000014 10.000000000000002 4750.0000000000009 4.7500000000000009 10.000000000000002 14.000000000000002 4.3500000000000005 473.50000000000006 3.7500000000000004 803.50000000000011 6.5500000000000007
decision_type=2 2 2 2 2 2 2 2 2 2 2 2 2 2 2 2 2 2 2 2 2 2 2 2
left_child=7 9 3 -3 -4 -5 -6 11 10 -2 -9 15 -13 14 21 16 18 19 20 -17 -1 -11 -22 -24
right_child=1 2 4 5 6 -7 -8 8 -10 13 -12 12 -14 -15 -16 17 -18 -19 -20 -21 22 -23 23 -25
leaf_value=-0.080984917996838643 -0.067365674032062936 0.038946672361270578 0.03703104682924014 -0.051565577069373418 0.068974623709691429 -0.015425917463962139 0.083213801730044765 -0.08250108870042884 -0.050094030155296711 -0.080719059847565777 -0.074763169900514848 -0.08122376220878709 -0.075425093788231964 -0.080010438963137365 -0.083541198322649002 -0.080725942701125472 -0.083260405105915924 -0.078341013415789543 -0.081927561564723639 -0.081434244412508572 -0.080639324090585274 -0.081257408286220967 -0.080496431852186884 -0.080452476509453877
leaf_weight=0.35170393623412 0.21508179139345784 1.6429854147136205 2.5567344394512457 0.76157034235075094 2.7238731272518635 0.65032538864761591 2.7551082929130644 0.35622625332325686 0.2774544699350372 0.27575065102428176 0.24922067881561816 0.4530044263228773 0.34047375665977597 0.37153558689169586 0.43995971465483308 0.4540124209597709 0.31872793240472663 0.31053312215954065 0.37893312796950329 0.29367889184504747 0.47485728096216895 0.27863955311477184 0.48297032620757818 0.34941933210939169
leaf_count=39 32 39 48 40 38 30 25 39 41 30 33 50 46 47 49 50 34 40 43 34 52 31 52 38
internal_value=-3.51452e-11 0.0316169 0.0474732 0.00480743 0.0636931 -0.0349195 0.0761348 -0.0786915 -0.0701329 -0.0796161 -0.0793159 -0.0804871 -0.0787356 -0.0815452 -0.0821186 -0.0808941 -0.0811956 -0.0802227 -0.0808726 -0.0810042 -0.0806316 -0.0809896 -0.0805366 -0.080478
internal_weight=17.7628 12.6716 11.0906 3.05488 8.03572 1.4119 5.47898 5.09122 0.882901 1.58097 0.605447 4.20831 0.793478 1.36589 0.99435 3.41484 2.35661 1.05822 2.03788 0.747691 1.65895 0.55439 1.30725 0.83239
internal_count=1000 409 220 109 111 70 63 591 113 189 72 478 96 157 110 382 258 124 224 84 181 61 142 90
is_linear=0
shrinkage=0.05


Tree=4
num_leaves=26
num_cat=0
split_feature=4 8 3 0 8 1 8 3 4 0 8 0 8 8 1 3 1 4 1 8 4 0 3 5 5
split_gain=16.247 8.18552 3.07174 1.67488 0.958046 0.335719 0.0754206 0.0195374 0.0390038 0.010721 0.00238301 0.000636788 0.00311927 0.000396706 0.000271054 0.000262776 0.000498562 8.4106e-05 3.01149e-05 1.03275e-05 1.62035e-06 1.81474e-06 4.17919e-07 7.97081e-07 3.93523e-07
threshold=5250.0000000000009 4.1500000000000012 57.000000000000007 477.50000000000006 4.5500000000000007 10.000000000000002 4.8500000000000005 154.00000000000003 4750.0000000000009 365.00000000000006 4.3500000000000005 659.00000000000011 4.5500000000000007 4.7500000000000009 14.000000000000002 86.000000000000014 10.000000000000002 4750.0000000000009 10.000000000000002 3.7500000000000004 4750.0000000000009 819.00000000000011 57.000000000000007 6.5500000000000007 6.3500000000000005
decision_type=2 2 2 2 2 2 2 2 2 2 2 2 2 2 2 2 2 2 2 2 2 2 2 2 2
left_child=7 9 3 -3 -4 -5 -6 11 10 -2 -9 12 17 14 20 16 19 18 -1 -11 21 -13 23 -23 -22
right_child=1 2 4 5 6 -7 -8 8 -10 15 -12 13 -14 -15 -16 -17 -18 -19 -20 -21 24 22 -24 -25 -26
leaf_value=-0.076959228289695716 -0.065495354196685548 0.032551029597532505 0.033207874477716323 -0.080821507335625542 0.06588489934038505 -0.024374735775289563 0.077105169897165107 -0.078306340655111273 -0.052816783764658953 -0.076838413461156024 -0.07184098091463198 -0.076762078754242943 -0.07077293903625663 -0.078610177506159576 -0.07818708273493552 -0.076473779228968766 -0.079324632732462652 -0.07633313023953657 -0.077577018303245163 -0.077268477112007392 -0.076706776253975428 -0.076647605695243079 -0.076670684987026547 -0.076537087385482677 -0.076785474700650655
leaf_weight=0.50365059264004475 0.21106976363807817 1.5370974559336894 2.2079888181760889 0.46527900313958503 2.8756016052793711 0.60713812615722418 3.1255896924994886 0.35093262838199724 0.27257018885575235 0.27844490762799956 0.23998386331368238 0.31001713871955938 0.24833311268594105 0.40906618884764601 0.35720197344198812 0.36973049002699554 0.42633787961676717 0.42089885764289647 0.32426021154969931 0.27993701118975878 0.27026666328310955 0.38666907418519258 0.31685079168528318 0.28222079109400511 0.385307926684618
leaf_count=55 32 36 48 44 38 29 25 39 41 30 33 34 37 46 39 47 49 52 38 31 30 41 34 30 42
internal_value=8.93326e-10 0.0308835 0.0463467 -0.000907938 0.0613679 -0.0488647 0.0717287 -0.0753152 -0.0684634 -0.075977 -0.0756806 -0.0767189 -0.0758909 -0.0771751 -0.0769208 -0.0776103 -0.0780371 -0.0769086 -0.0772012 -0.077054 -0.076689 -0.0766566 -0.0766234 -0.076601 -0.076753
internal_weight=17.4624 12.3842 10.8187 2.60951 8.20918 1.07242 6.00119 5.07823 0.863487 1.56552 0.590916 4.21474 1.49714 2.7176 2.30853 1.35445 0.98472 1.24881 0.827911 0.558382 1.95133 1.29576 0.985741 0.66889 0.655575
internal_count=1000 409 220 109 111 73 63 591 113 189 72 478 182 296 250 157 110 145 93 61 211 139 105 71 72
is_linear=0
shrinkage=0.05


Tree=5
num_leaves=27
num_cat=0
split_feature=4 8 3 0 1 8 0 1 3 4 0 1 0 8 8 3 1 1 8 1 8 4 0 5 3 5
split_gain=14.705 7.36787 2.60582 1.34535 0.792654 1.18865 0.601854 0.250117 0.0181688 0.0367142 0.00905405 0.0017326 0.000547965 0.00167509 0.000270225 0.000197519 0.000330052 0.000174602 7.35839e-05 1.58505e-05 6.15801e-06 1.37903e-06 1.38044e-06 8.52767e-07 6.12259e-07 1.46794e-06
threshold=5250.0000000000009 4.1500000000000012 57.000000000000007 477.50000000000006 14.000000000000002 4.8500000000000005 316.50000000000006 10.000000000000002 154.00000000000003 4750.0000000000009 365.00000000000006 7.0000000000000009 659.00000000000011 4.4500000000000011 4.7500000000000009 86.000000000000014 10.000000000000002 14.000000000000002 4.2500000000000009 10.000000000000002 3.7500000000000004 4750.0000000000009 819.00000000000011 6.3500000000000005 57.000000000000007 6.5500000000000007
decision_type=2 2 2 2 2 2 2 2 2 2 2 2 2 2 2 2 2 2 2 2 2 2 2 2 2 2
left_child=8 10 3 -3 5 6 -4 -5 12 11 -2 -10 13 18 17 16 20 21 19 -1 -12 22 -14 -23 25 -24
right_child=1 2 4 7 -6 -7 -8 -9 9 -11 15 -13 14 -15 -16 -17 -18 -19 -20 -21 -22 23 24 -25 -26 -27
leaf_value=-0.073631538125308413 -0.062868185049814312 0.028115699996737256 0.045886726523235138 -0.078469827321813679 0.071534421721886468 0.070035100584134882 -0.011909305471272988 -0.025751378423666378 -0.075415481056431088 -0.050123675582335415 -0.073572413896738367 -0.069908420448893338 -0.073494455323072236 -0.069658039405189137 -0.075031554962249614 -0.073167670104351504 -0.07560851700003185 -0.074644015305936562 -0.072870172728627516 -0.074071852687422196 -0.073905623158786793 -0.073423160926648412 -0.073409510698006344 -0.073539256719468246 -0.073430589352637313 -0.073259436372203973
leaf_weight=0.49709497205913311 0.20483118330594052 1.4662371638696634 0.77648116275668 0.40611152490600932 4.645398236811161 1.7281501255929468 1.0727316725533453 0.50446010509040207 0.27027330780401815 0.26932712027337402 0.27690981421619631 0.30287248245440423 0.30840490665286846 0.35949469543993462 0.39605154132004816 0.36342294258065522 0.41124630672857165 0.35080606909468759 0.27447533223312348 0.34710793383419514 0.2777252858504653 0.26937488000839938 0.38557183742523193 0.38316853484138846 0.31571981590241194 0.28220184054225683
leaf_count=54 32 36 16 44 26 20 49 29 30 41 30 42 34 52 46 47 49 39 35 41 31 30 41 42 34 30
internal_value=-5.05033e-10 0.0297599 0.0445827 -0.00152884 0.0579114 0.0402212 0.0123591 -0.0492636 -0.0720474 -0.0653502 -0.0726535 -0.0725053 -0.0734006 -0.0726272 -0.0738254 -0.0741613 -0.0745351 -0.0736173 -0.0735814 -0.0738126 -0.0737393 -0.0734321 -0.0734022 -0.0734913 -0.0733732 -0.0733461
internal_weight=17.1457 12.1337 10.5996 2.37681 8.22276 3.57736 1.84921 0.910572 5.01195 0.842473 1.53414 0.573146 4.16947 1.47817 2.6913 1.3293 0.965881 2.29525 1.11868 0.844203 0.554635 1.94444 1.2919 0.652543 0.983493 0.667774
internal_count=1000 409 220 109 111 85 65 73 591 113 189 72 478 182 296 157 110 250 130 95 61 211 139 72 105 71
is_linear=0
shrinkage=0.05


Tree=6
num_leaves=25
num_cat=0
split_feature=4 8 3 0 1 0 1 3 4 0 1 0 8 3 1 8 1 8 1 8 3 0 0 2
split_gain=13.4377 6.72172 2.08299 1.16996 0.649238 0.288819 0.247507 0.0182562 0.034758 0.00940578 0.00164042 0.000567083 0.00182303 0.000179401 0.00020599 0.000147812 0.000116359 8.68025e-05 1.28133e-05 4.57597e-06 1.403e-06 2.71227e-06 4.25193e-06 1.6308e-06
threshold=5250.0000000000009 4.1500000000000012 57.000000000000007 477.50000000000006 10.000000000000002 257.00000000000006 10.000000000000002 154.00000000000003 4750.0000000000009 365.00000000000006 7.0000000000000009 659.00000000000011 4.4500000000000011 86.000000000000014 10.000000000000002 4.7500000000000009 14.000000000000002 4.2500000000000009 10.000000000000002 3.7500000000000004 30.000000000000004 1224.5000000000002 951.50000000000011 384.00000000000006
decision_type=2 2 2 2 2 2 2 2 2 2 2 2 2 2 2 2 2 2 2 2 2 2 2 2
left_child=7 9 3 -3 5 -4 -5 11 10 -2 -9 12 17 14 19 16 20 18 -1 -11 -13 22 23 -22
right_child=1 2 4 6 -6 -7 -8 8 -10 13 -12 15 -14 -15 -16 -17 -18 -19 -20 -21 21 -23 -24 -25
leaf_value=-0.07092347773990447 -0.059644848765441585 0.02854581808888032 0.055384518684843967 -0.074763378473654468 0.064106144477857022 0.018058351618232583 -0.020722062565383722 -0.072396644841497354 -0.047518792631369558 -0.07089187602340323 -0.066970999030684417 -0.070840329978126018 -0.06670224026049236 -0.070351653339668044 -0.072526189674024757 -0.071968175842818338 -0.071755657404116935 -0.070056697096134518 -0.07132146816643202 -0.07118027170173917 -0.070704349187938539 -0.070837282394404538 -0.070578480709655153 -0.070872248798451457
leaf_weight=0.4924538498744393 0.19926094473339517 1.4965046939905726 0.83503812178969239 0.38053626613691438 5.8090125434100628 1.3660821175435556 0.47802360681816936 0.26410638540983189 0.2639289729995653 0.27483604382723548 0.29483439587056637 0.42159782536327917 0.35169736226089288 0.35827599128242582 0.40105862030759454 0.38693475857144211 0.34582980256527651 0.27069560426753014 0.34316023904830217 0.27534600161015987 0.31266302056610562 0.46687747444957484 0.45910876803100109 0.26909596798941493
leaf_count=54 32 36 14 44 47 50 29 30 41 30 42 46 52 47 49 46 39 35 41 31 35 50 50 30
internal_value=1.1789e-09 0.0288373 0.0431901 0.00185266 0.0553437 0.0322188 -0.0446746 -0.0692726 -0.0624733 -0.0697653 -0.0695347 -0.0706306 -0.069838 -0.0713052 -0.0716644 -0.0710647 -0.0709111 -0.0708348 -0.0710869 -0.0710362 -0.0707597 -0.0707372 -0.0706922 -0.070782
internal_weight=16.817 11.874 10.3652 2.35506 8.01013 2.20112 0.85856 4.94298 0.82287 1.50878 0.558941 4.12011 1.45801 1.30952 0.951241 2.66211 2.27517 1.10631 0.835614 0.550182 1.92934 1.50775 1.04087 0.581759
internal_count=1000 409 220 109 111 64 73 591 113 189 72 478 182 157 110 296 250 130 95 61 211 165 115 65
is_linear=0
shrinkage=0.05


Tree=7
num_leaves=26
num_cat=0
split_feature=4 8 3 0 8 1 1 3 4 0 8 8 0 3 1 3 0 1 0 8 4 3 0 0 2
split_gain=12.0077 5.92741 1.91644 0.992244 0.665528 0.734071 0.188176 0.0189366 0.034068 0.00962871 0.00173756 0.000793781 0.00230823 0.000191597 0.00011584 7.38312e-05 0.000276153 4.70733e-05 1.07013e-05 9.07557e-06 5.17221e-06 2.25452e-06 3.6498e-06 8.11006e-06 3.09013e-06
threshold=5250.0000000000009 4.1500000000000012 57.000000000000007 477.50000000000006 4.7500000000000009 14.000000000000002 10.000000000000002 154.00000000000003 4750.0000000000009 365.00000000000006 4.2500000000000009 4.7500000000000009 826.00000000000011 86.000000000000014 10.000000000000002 86.000000000000014 654.50000000000011 14.000000000000002 531.50000000000011 3.9500000000000006 5750.0000000000009 30.000000000000004 1224.5000000000002 1038.5000000000002 384.00000000000006
decision_type=2 2 2 2 2 2 2 2 2 2 2 2 2 2 2 2 2 2 2 2 2 2 2 2 2
left_child=7 9 3 -3 5 -4 -5 11 10 -2 -9 15 -13 14 20 17 -17 18 19 -1 -11 -20 23 24 -23
right_child=1 2 4 6 -6 -7 -8 8 -10 13 -12 12 -14 -15 -16 16 -18 -19 21 -21 -22 22 -24 -25 -26
leaf_value=-0.068515980527676601 -0.056786360887151013 0.024534895309011099 0.013167117081254096 -0.07174309256893191 0.066148944577416144 0.056954023897631413 -0.022928259697400526 -0.069496444043844627 -0.044606388470951122 -0.068887650144148618 -0.063788078938939508 -0.06186550343234562 -0.068953574081900518 -0.067830325581370851 -0.06987484043730173 -0.066659600261891314 -0.068807893522669125 -0.06909111433527805 -0.06856808789788614 -0.068882830914931234 -0.068575951936673638 -0.068395084133175132 -0.068584942338639016 -0.068175990045452786 -0.068620350469233024
leaf_weight=0.32199725089595155 0.19098081183619697 1.4527434310875817 1.7387574641034009 0.35857926914468397 4.1206642983015627 2.1293715499341488 0.43928131926804781 0.29188391752541054 0.25198047619778663 0.27143819211050846 0.24537453276570886 0.18019448569975782 0.3167739991331473 0.34573652094695717 0.38314008666202426 0.23289912997279305 0.41819478617981076 0.46284423302859057 0.45395928062498558 0.35387284029275179 0.26112369308248162 0.3567460700869558 0.31477774400264025 0.30358287505805492 0.26556689292192459
leaf_count=36 32 36 57 44 37 17 29 35 41 31 37 30 40 47 49 32 48 58 51 43 30 41 35 34 30
internal_value=2.19766e-09 0.0272772 0.0406854 -6.87077e-05 0.0521666 0.0372714 -0.0448669 -0.0668504 -0.0597751 -0.0672491 -0.0668893 -0.0682529 -0.0663835 -0.0688332 -0.0692118 -0.0685196 -0.0680394 -0.0686299 -0.0685398 -0.0687081 -0.0687348 -0.0684727 -0.0684379 -0.0683879 -0.0684912
internal_weight=16.4625 11.6918 10.2394 2.2506 7.98879 3.86813 0.797861 4.77065 0.789239 1.45242 0.537258 3.98141 0.496968 1.26144 0.915702 3.48444 0.651094 2.83335 2.3705 0.67587 0.532562 1.69463 1.24067 0.925896 0.622313
internal_count=1000 409 220 109 111 74 73 591 113 189 72 478 70 157 110 408 80 328 270 79 61 191 140 105 71
is_linear=0
shrinkage=0.05


Tree=8
num_leaves=26
num_cat=0
split_feature=4 8 1 8 0 3 0 3 4 0 8 8 0 3 3 0 1 1 0 8 4 3 0 0 2
split_gain=10.8565 5.31624 1.71875 1.62736 0.575847 1.04816 0.245202 0.0210687 0.0360897 0.0105271 0.00186474 0.00122105 0.00313006 0.0002183 9.4451e-05 0.000316532 7.29958e-05 2.81423e-05 7.61635e-06 5.97269e-06 3.88444e-06 1.92649e-06 3.44792e-06 6.6519e-06 2.69274e-06
threshold=5250.0000000000009 4.1500000000000012 14.000000000000002 4.5500000000000007 332.00000000000006 86.000000000000014 463.50000000000006 154.00000000000003 4750.0000000000009 365.00000000000006 4.2500000000000009 4.7500000000000009 826.00000000000011 86.000000000000014 86.000000000000014 654.50000000000011 10.000000000000002 14.000000000000002 531.50000000000011 3.9500000000000006 5750.0000000000009 30.000000000000004 1224.5000000000002 1038.5000000000002 384.00000000000006
decision_type=2 2 2 2 2 2 2 2 2 2 2 2 2 2 2 2 2 2 2 2 2 2 2 2 2
left_child=7 9 3 6 -5 -6 -3 11 10 -2 -9 14 -13 16 17 -16 20 18 19 -1 -11 -20 23 24 -23
right_child=1 2 -4 4 5 -7 -8 8 -10 13 -12 12 -14 -15 15 -17 -18 -19 21 -21 -22 22 -24 -25 -26
leaf_value=-0.06656600381538065 -0.053951502515223529 -0.0045750134240373896 0.060529827617349777 0.06513446486478873 -0.018763670125103129 0.050371736940824224 -0.042732276299384572 -0.067320780842227812 -0.041313822391933958 -0.066885255846224886 -0.0613071067876532 -0.058485623006662837 -0.066877442567420883 -0.065635538239529959 -0.064474642721024975 -0.06680900889478715 -0.067671442816482894 -0.067013050180453906 -0.066612030640475245 -0.066868416665156291 -0.066611007339005698 -0.066444811039713017 -0.066635027127974159 -0.066246285045040459 -0.066658325741053084
leaf_weight=0.31215785257518724 0.18592542957048763 0.99376209266483584 4.7687186462571844 1.28763968590647 0.8992345575243238 1.4045483709778634 0.7305323826149106 0.28214544663205732 0.24562707066070288 0.26309851417317964 0.23734733916353434 0.17447907687164832 0.30598180985543877 0.33481859182938933 0.22632772580254812 0.40521384961903095 0.36896119872108102 0.44806697545573104 0.44025834789499629 0.34231640491634607 0.25354249868541956 0.34693639120087005 0.30524316756054759 0.29578217212110758 0.25709019927307963
leaf_count=36 32 27 42 22 54 28 47 35 41 31 37 30 40 47 32 48 49 58 51 43 30 41 35 34 30
internal_value=-2.3468e-10 0.0260357 0.0387362 0.0191851 0.0383543 0.0233861 -0.0207411 -0.064686 -0.0571062 -0.0650346 -0.0645732 -0.0661885 -0.06383 -0.0667231 -0.0665238 -0.0659724 -0.0671343 -0.0666505 -0.0665799 -0.0667242 -0.0667507 -0.0665225 -0.0664898 -0.0664406 -0.0665357
internal_weight=16.1158 11.4908 10.0844 5.31572 3.59142 2.30378 1.72429 4.62497 0.76512 1.40635 0.519493 3.85985 0.480461 1.22042 3.37939 0.631542 0.885602 2.74785 2.29978 0.654474 0.516641 1.64531 1.20505 0.899809 0.604027
internal_count=1000 409 220 178 104 82 74 591 113 189 72 478 70 157 408 80 110 328 270 79 61 191 140 105 71
is_linear=0
shrinkage=0.05


Tree=9
num_leaves=25
num_cat=0
split_feature=4 8 3 0 8 0 1 3 0 0 8 0 3 3 0 1 1 0 8 4 3 0 0 2
split_gain=10.0039 4.88359 1.59265 1.15293 0.621827 0.514557 0.0773202 0.0231225 0.0386358 0.0112715 0.0015918 0.00376557 0.000239487 0.0001181 0.000359325 4.46897e-05 1.8412e-05 3.93699e-06 4.14852e-06 3.23458e-06 1.0571e-06 1.19871e-06 3.29245e-06 1.28708e-06
threshold=5250.0000000000009 4.1500000000000012 57.000000000000007 473.50000000000006 4.7500000000000009 882.50000000000011 10.000000000000002 154.00000000000003 878.00000000000011 365.00000000000006 4.7500000000000009 826.00000000000011 86.000000000000014 86.000000000000014 654.50000000000011 10.000000000000002 14.000000000000002 531.50000000000011 4.0500000000000007 5750.0000000000009 30.000000000000004 1224.5000000000002 1038.5000000000002 384.00000000000006
decision_type=2 2 2 2 2 2 2 2 2 2 2 2 2 2 2 2 2 2 2 2 2 2 2 2
left_child=7 9 3 -3 5 -4 -5 10 -9 -2 13 -12 15 16 -15 19 17 18 -1 -11 -19 22 23 -22
right_child=1 2 4 6 -6 -7 -8 8 -10 12 11 -13 -14 14 -16 -17 -18 20 -20 -21 21 -23 -24 -25
leaf_value=-0.064803980929284508 -0.051527796245528924 0.026299694004995218 0.050594801126264161 -0.067612872284683864 0.061777280757227028 0.012883726916888397 -0.035509557688417591 -0.041930996569565684 -0.064773680427499605 -0.06509031906610703 -0.055749329412935644 -0.065030757475082787 -0.063679922975240125 -0.062492958438187113 -0.065009401466377625 -0.065695953957063319 -0.065173933349089844 -0.064844506947728253 -0.065058755056470949 -0.064837304190064823 -0.064727585711452054 -0.064839442565670827 -0.06458526693153635 -0.064876737850242533
leaf_weight=0.33916100114584224 0.18375004158588026 1.4378697967622414 1.9712802027352156 0.33974068332463492 4.040340423816815 1.6716009015217421 0.41870988043956459 0.3300241864635608 0.42157851730007678 0.25716652814298846 0.17261794861406077 0.29782612778944895 0.32686459238175303 0.2207334532868116 0.39698912110179663 0.3584052505902946 0.43681594496592868 0.43124608602374781 0.3021013829857111 0.24826364871114492 0.33902342198416568 0.29943103948608041 0.28885508328676224 0.25226476928219199
leaf_count=40 32 35 38 44 37 36 30 58 55 31 30 40 47 32 48 49 58 51 39 30 41 35 34 30
internal_value=-1.82149e-09 0.025252 0.0375372 -1.07045e-05 0.0482707 0.0332904 -0.0498899 -0.0627527 -0.0547436 -0.063054 -0.0643465 -0.0616252 -0.0648327 -0.0647336 -0.0641102 -0.0652689 -0.0648769 -0.0648192 -0.064924 -0.064966 -0.0647775 -0.064753 -0.0647236 -0.0647912
internal_weight=15.7827 11.254 9.87954 2.19632 7.68322 3.64288 0.758451 4.52867 0.751603 1.37445 3.77707 0.470444 1.1907 3.30662 0.617723 0.863835 2.6889 2.25208 0.641262 0.50543 1.61082 1.17957 0.880143 0.591288
internal_count=1000 409 220 109 111 74 74 591 113 189 478 70 157 408 80 110 328 270 79 61 191 140 105 71
is_linear=0
shrinkage=0.05


Tree=10
num_leaves=27
num_cat=0
split_feature=4 8 3 0 1 8 0 0 3 4 0 8 8 0 3 3 0 1 1 0 4 8 3 0 0 2
split_gain=9.19186 4.45581 1.59664 1.02585 0.667746 0.806091 0.36302 0.0617632 0.0245832 0.0410296 0.0121015 0.00214602 0.00194534 0.00418293 0.000259361 0.000151975 0.00044014 2.35376e-05 8.48161e-06 3.65865e-06 2.56526e-06 2.42149e-06 1.16754e-06 1.8501e-06 3.81654e-06 2.10099e-06
threshold=5250.0000000000009 4.1500000000000012 57.000000000000007 463.50000000000006 14.000000000000002 4.8500000000000005 625.50000000000011 1038.5000000000002 154.00000000000003 4750.0000000000009 365.00000000000006 4.2500000000000009 4.7500000000000009 826.00000000000011 86.000000000000014 86.000000000000014 654.50000000000011 10.000000000000002 14.000000000000002 531.50000000000011 5750.0000000000009 3.9500000000000006 30.000000000000004 1224.5000000000002 1038.5000000000002 384.00000000000006
decision_type=2 2 2 2 2 2 2 2 2 2 2 2 2 2 2 2 2 2 2 2 2 2 2 2 2 2
left_child=8 10 3 -3 5 6 -4 -5 12 11 -2 -10 15 -14 17 18 -17 20 19 21 -12 -1 -21 24 25 -24
right_child=1 2 4 7 -6 -7 -8 -9 9 -11 14 -13 13 -15 -16 16 -18 -19 -20 22 -22 -23 23 -25 -26 -27
leaf_value=-0.063290765311330502 -0.049236071632779106 0.023350063477993028 0.028647940724734446 -0.036773185405130436 0.061336471330021403 0.056784134138259501 -0.01451476535205596 -0.06583518693852701 -0.06391577310991374 -0.035599131378272315 -0.06352788061581606 -0.057312032267962644 -0.053442853545640448 -0.063341014981920754 -0.0619571465115141 -0.060631321055586121 -0.063458018023320129 -0.06395320119548098 -0.063535795316556218 -0.063322161660967213 -0.06329907815878115 -0.063488132190794105 -0.063179441263357214 -0.063333843688757163 -0.0630375261109236 -0.063372680284955726
leaf_weight=0.29745638137683528 0.17991554376203467 1.3632987970486268 1.1256243064999583 0.40793968911748368 3.8891616687178612 1.7133321724832056 0.85880757588893164 0.33128134580329061 0.26822883682325471 0.2371892798691988 0.24894632864743449 0.2272593920934014 0.16928940487559874 0.28886273270472884 0.31585038779303432 0.21421745652332891 0.38559784693643451 0.34758690139278769 0.42361880559474219 0.41811013035476197 0.24119115341454744 0.32543263025581837 0.33045578375458695 0.28968596225604415 0.28339038928970695 0.24490860663354397
leaf_count=36 32 33 26 41 26 20 39 35 35 41 31 37 30 40 47 32 48 49 58 51 30 43 41 35 34 30
internal_value=-1.82457e-10 0.0243948 0.0361879 -0.00236768 0.0468726 0.0316601 0.00996831 -0.0497973 -0.0610627 -0.0527005 -0.0612971 -0.0608869 -0.0627316 -0.0596836 -0.0631781 -0.0631662 -0.0624485 -0.0636385 -0.063331 -0.0632914 -0.0634153 -0.0633939 -0.0632506 -0.0632246 -0.0631877 -0.0632617
internal_weight=15.4266 11.0229 9.68945 2.10252 7.58693 3.69776 1.98443 0.739221 4.4037 0.732678 1.33349 0.495488 3.67103 0.458152 1.15357 3.21287 0.599815 0.837724 2.61306 2.18944 0.490137 0.622889 1.56655 1.14844 0.858755 0.575364
internal_count=1000 409 220 109 111 85 65 76 591 113 189 72 478 70 157 408 80 110 328 270 61 79 191 140 105 71
is_linear=0
shrinkage=0.05


Tree=11
num_leaves=25
num_cat=0
split_feature=4 8 1 8 0 8 0 3 4 0 8 8 0 3 3 0 1 1 0 4 0 3 6 0
split_gain=8.43272 4.05651 1.46234 1.50546 0.522655 0.329223 0.225079 0.0277442 0.042887 0.0132495 0.00252746 0.00246904 0.00479521 0.000284784 0.000172101 0.000484076 1.02356e-05 3.77865e-06 2.82322e-06 2.36218e-06 2.33019e-06 1.84358e-06 1.06436e-06 6.72954e-07
threshold=5250.0000000000009 4.1500000000000012 14.000000000000002 4.5500000000000007 332.00000000000006 4.8500000000000005 285.50000000000006 154.00000000000003 4750.0000000000009 365.00000000000006 4.2500000000000009 4.7500000000000009 826.00000000000011 86.000000000000014 86.000000000000014 654.50000000000011 10.000000000000002 14.000000000000002 816.00000000000011 5750.0000000000009 1224.5000000000002 49.000000000000007 25.500000000000004 531.50000000000011
decision_type=2 2 2 2 2 2 2 2 2 2 2 2 2 2 2 2 2 2 2 2 2 2 2 2
left_child=7 9 3 6 -5 -6 -3 11 10 -2 -9 14 -13 16 17 -16 19 18 22 -11 21 -20 -1 -24
right_child=1 2 -4 4 5 -7 -8 8 -10 13 -12 12 -14 -15 15 -17 -18 -19 20 -21 -22 -23 23 -25
leaf_value=-0.0620047887658065 -0.047034719835171213 0.00026591119708221477 0.056592520763161486 0.058725211227739771 -0.0029123498987469218 0.036100973065254283 -0.038148592530631291 -0.062513693159857553 -0.033032900455040141 -0.062268164584648227 -0.055218812189953392 -0.051139060108606173 -0.061908018483621298 -0.060512183110514733 -0.059174830589074745 -0.062192038111560023 -0.062519810042685545 -0.062210295176967502 -0.061993117780384105 -0.062044694595350405 -0.062082789670405286 -0.061819662456601768 -0.062167559143199026 -0.062078388080513691
leaf_weight=0.22812684532255179 0.17556161986431007 0.62400387600064078 4.2544890503631905 1.4121890142560007 0.92756814428139511 1.2967455360339952 0.98044003709219396 0.25838620169088233 0.23387754586292431 0.24022942921146728 0.21969430521130562 0.16465716890525062 0.27772943919990212 0.30407617404125631 0.20669975213240821 0.37251377943903208 0.33359969733282924 0.40806597983464588 0.40528587624430634 0.23289801459759474 0.38434843486174941 0.24627492390573025 0.45840580714866519 0.39295224705711007
leaf_count=30 32 16 42 22 48 34 58 35 41 31 37 30 40 47 32 48 49 58 51 30 48 31 60 50
internal_value=-2.15176e-09 0.0235263 0.0348145 0.0171356 0.0349356 0.0198319 -0.0232083 -0.0595854 -0.0505782 -0.0597988 -0.0591614 -0.0613943 -0.0578998 -0.0618162 -0.0618926 -0.0611153 -0.0623077 -0.062071 -0.0620441 -0.0621582 -0.0619852 -0.0619276 -0.0621007 -0.0621264
internal_weight=15.0388 10.7818 9.49544 5.24095 3.6365 2.22431 1.60444 4.25702 0.711958 1.28636 0.478081 3.54506 0.442387 1.1108 3.10267 0.579214 0.806727 2.52346 2.11539 0.473127 1.03591 0.651561 1.07948 0.851358
internal_count=1000 409 220 178 104 82 74 591 113 189 72 478 70 157 408 80 110 328 270 61 130 82 140 110
is_linear=0
shrinkage=0.05


Tree=12
num_leaves=25
num_cat=0
split_feature=4 8 3 0 0 1 0 3 0 0 8 0 3 3 0 0 0 1 7 0 0 4 5 5
split_gain=7.82273 3.74852 1.38144 0.91316 0.601374 0.200396 0.0603784 0.0315738 0.0470773 0.0148275 0.00315899 0.00567944 0.000319048 0.000207201 0.000558809 1.13957e-05 4.63885e-06 8.26058e-06 2.57917e-06 1.64056e-06 1.86963e-06 1.63246e-06 9.05517e-07 1.23037e-06
threshold=5250.0000000000009 4.1500000000000012 57.000000000000007 463.50000000000006 1011.5000000000001 14.000000000000002 1038.5000000000002 154.00000000000003 878.00000000000011 365.00000000000006 4.7500000000000009 826.00000000000011 86.000000000000014 86.000000000000014 654.50000000000011 959.00000000000011 234.50000000000003 14.000000000000002 1.0000000180025095e-35 816.00000000000011 1077.5000000000002 4250.0000000000009 6.6500000000000012 6.1500000000000012
decision_type=2 2 2 2 2 2 2 2 2 2 2 2 2 2 2 2 2 2 2 2 2 2 2 2
left_child=7 9 3 -3 5 -4 -5 10 -9 -2 13 -12 15 16 -15 -11 -1 19 -17 22 -21 -22 23 -18
right_child=1 2 4 6 -6 -7 -8 8 -10 12 11 -13 -14 14 -16 18 17 -19 -20 20 21 -23 -24 -25
leaf_value=-0.060755190173426656 -0.04482063939279108 0.02234274210851277 0.043479453698781756 -0.034299713335096758 0.022004392146673869 0.063374363272880568 -0.063235652431287856 -0.03390925255636159 -0.060054453647637757 -0.060922535640054544 -0.048810871427752187 -0.060647605819474884 -0.0592233450204269 -0.057783867471624596 -0.061077395650233728 -0.061427996885972162 -0.061026935828346486 -0.061210919326533053 -0.06119232164839894 -0.060818714039129973 -0.061060725516801855 -0.060894445607728082 -0.061061733241960375 -0.060870118320528278
leaf_weight=0.22991170315072151 0.17214438144583155 1.3390626963227972 2.4959859007503837 0.4053179493639617 2.1496085906401277 2.5680144466459751 0.32470288407057524 0.30772472592070688 0.39086556260008365 0.31716069416142978 0.16238486929796625 0.26957463304279372 0.2948470541741699 0.20006102649494995 0.36151539999991655 0.23453509388491511 0.28047362947836552 0.3584367032162844 0.22986851120367646 0.38384555326774694 0.2414524364285171 0.37976806610822678 0.34844759805127978 0.22575730597600341
leaf_count=33 32 33 50 41 45 16 35 58 55 48 30 40 47 32 48 31 37 51 31 50 31 49 47 30
internal_value=-8.7945e-10 0.022892 0.0338323 -0.00218297 0.0441625 0.0535684 -0.04717 -0.0582292 -0.0485377 -0.0584458 -0.0601964 -0.0561979 -0.0606248 -0.0607703 -0.0599041 -0.0611536 -0.060969 -0.0609911 -0.0613113 -0.0609488 -0.0609055 -0.0609591 -0.0609997 -0.060957
internal_weight=14.6715 10.5312 9.28269 2.06908 7.21361 5.064 0.730021 4.14022 0.69859 1.24856 3.44163 0.43196 1.07641 3.00967 0.561576 0.781564 2.44809 2.21818 0.464404 1.85974 1.00507 0.621221 0.854679 0.506231
internal_count=1000 409 220 109 111 66 76 591 113 189 478 70 157 408 80 110 328 295 62 244 130 80 114 67
is_linear=0
shrinkage=0.05


Tree=13
num_leaves=27
num_cat=0
split_feature=4 8 1 8 0 8 0 3 8 0 0 8 0 3 1 0 0 7 0 0 0 3 2 5 3 8
split_gain=7.17357 3.40746 1.38363 1.26341 0.572873 0.245561 0.165776 0.0337792 0.0486707 0.0156678 0.0135422 0.00367781 0.00632004 0.000345755 0.000249801 0.000689237 1.3789e-05 2.80417e-06 1.54902e-06 2.17299e-06 1.50744e-06 1.81299e-06 2.84513e-06 1.33141e-06 3.7362e-07 3.4644e-07
threshold=5250.0000000000009 4.1500000000000012 14.000000000000002 4.5500000000000007 332.00000000000006 4.8500000000000005 316.50000000000006 154.00000000000003 4.4500000000000011 365.00000000000006 634.50000000000011 4.7500000000000009 826.00000000000011 86.000000000000014 14.000000000000002 681.50000000000011 959.00000000000011 1.0000000180025095e-35 262.50000000000006 531.50000000000011 1224.5000000000002 30.000000000000004 384.00000000000006 6.2500000000000009 49.000000000000007 4.0500000000000007
decision_type=2 2 2 2 2 2 2 2 2 2 2 2 2 2 2 2 2 2 2 2 2 2 2 2 2 2
left_child=7 9 3 6 -5 -6 -3 11 10 -2 -9 14 -13 16 18 -16 -11 -18 -1 24 21 -21 23 -23 -20 -22
right_child=1 2 -4 4 5 -7 -8 8 -10 13 -12 12 -14 -15 15 -17 17 -19 19 20 25 22 -24 -25 -26 -27
leaf_value=-0.059821211493755647 -0.043018265656028842 -0.0043770326169366722 0.053907144875020352 0.056404546604707298 -0.0040819926914089609 0.030784928877882995 -0.036962362017228405 -0.044016411875734761 -0.024505655652650414 -0.059828551231892096 -0.061153738835518806 -0.046840652894646374 -0.059527393727569038 -0.058037115996042499 -0.05619799775152861 -0.060222605237775062 -0.060389305489287295 -0.060138443829105381 -0.06000037652033921 -0.06001019354663728 -0.059959761842029446 -0.059879687787328863 -0.059963220031482745 -0.059723753303588284 -0.060091721215089183 -0.060045256457015674
leaf_weight=0.25356186483986931 0.16698014334542577 0.71032370813190737 4.1110953419702128 1.3995550312101843 0.93022547499276731 1.1046351033728568 0.86639641597867012 0.18160842591896642 0.17926164477830753 0.30398716265335657 0.31561697367578745 0.15814700920600433 0.25882442243164405 0.28304800810292363 0.17441988550126541 0.27270757220685482 0.22536667017266154 0.22028240608051419 0.20769968675449524 0.27943523740395881 0.23760135611519206 0.24206251045688987 0.42544132890179753 0.3150540292263031 0.24281601887196302 0.23637092905119061
leaf_count=37 32 19 42 22 48 34 55 30 39 48 44 30 40 47 31 39 31 31 29 38 32 33 58 44 36 31
internal_value=3.78944e-10 0.0219901 0.0324081 0.0147705 0.0317813 0.0148457 -0.0222824 -0.0570211 -0.0468417 -0.0572283 -0.0548944 -0.0591052 -0.0547156 -0.059526 -0.0597391 -0.0586526 -0.0600882 -0.0602653 -0.0599382 -0.0599518 -0.0599264 -0.0598978 -0.0598659 -0.0597915 -0.0600496 -0.0600024
internal_weight=14.3025 10.3219 9.12223 5.01114 3.43442 2.03486 1.57672 3.98063 0.676487 1.19966 0.497225 3.30414 0.416971 1.03268 2.88717 0.447127 0.749636 0.445649 2.44004 2.18648 1.73597 1.26199 0.982558 0.557117 0.450516 0.473972
internal_count=1000 409 220 178 104 82 74 591 113 189 74 478 70 157 408 70 110 62 338 301 236 173 135 77 65 63
is_linear=0
shrinkage=0.05


Tree=14
num_leaves=26
num_cat=0
split_feature=4 8 3 0 0 0 3 0 8 0 8 0 3 1 0 0 0 7 0 0 2 1 0 4 0
split_gain=6.63109 3.13146 1.28773 0.785502 0.570384 0.0708874 0.0392621 0.0588952 0.0223714 0.0181706 0.00448305 0.00728286 0.000395899 0.000299799 0.000769768 1.52335e-05 2.95929e-06 1.84338e-06 1.31315e-06 9.89877e-07 2.24052e-06 1.37773e-06 1.25431e-06 1.0522e-06 3.68572e-07
threshold=5250.0000000000009 4.1500000000000012 57.000000000000007 463.50000000000006 882.50000000000011 1038.5000000000002 154.00000000000003 421.00000000000006 4.3500000000000005 365.00000000000006 4.7500000000000009 826.00000000000011 86.000000000000014 14.000000000000002 681.50000000000011 959.00000000000011 262.50000000000006 1.0000000180025095e-35 531.50000000000011 1130.0000000000002 384.00000000000006 7.0000000000000009 816.00000000000011 4250.0000000000009 421.00000000000006
decision_type=2 2 2 2 2 2 2 2 2 2 2 2 2 2 2 2 2 2 2 2 2 2 2 2 2
left_child=6 9 3 -3 -4 -5 10 -8 -9 -2 13 -12 15 16 -15 -11 -1 -17 24 20 22 -22 -20 -21 -18
right_child=1 2 4 5 -6 -7 7 8 -10 12 11 -13 -14 14 -16 17 18 -19 19 23 21 -23 -24 -25 -26
leaf_value=-0.058935074612827487 -0.04063002472880925 0.019180301319289245 0.052122201383780313 -0.032504125341087604 0.021935324550726606 -0.064483772996099267 -0.015280373769571962 -0.060172414938583343 -0.038795904049280461 -0.058925323270723806 -0.044721000530395523 -0.058534036818775795 -0.056966313024836582 -0.055020223305320373 -0.059357150425955754 -0.059495996101209286 -0.059151402038704427 -0.059288572026920464 -0.059073654641082801 -0.059238613588680683 -0.059227692292485534 -0.059056309626110963 -0.058928641013769649 -0.059100587526738628 -0.059243597556206132
leaf_weight=0.24383442080579953 0.16410287684993707 1.3006972875446066 4.5043380642309785 0.4010198819451033 2.397892436478287 0.30513935722410679 0.13476689381059248 0.33327683107927442 0.19343029812444001 0.29216836648993194 0.15474340168293554 0.24893635651096702 0.27245990978553891 0.16784780321177084 0.26205135462805629 0.21684093866497278 0.22117959265597198 0.21166880894452333 0.31941535882651784 0.21631777239963401 0.26335285743698478 0.21139569254592061 0.27968803187832236 0.38173666363582015 0.21260353643447161
leaf_count=37 32 33 59 41 52 35 27 48 38 48 30 40 47 31 39 31 34 31 46 30 37 30 40 53 31
internal_value=-1.2531e-09 0.0213341 0.0313849 -0.00386852 0.041635 -0.0463229 -0.0558594 -0.0447752 -0.052322 -0.0560431 -0.0581627 -0.0532391 -0.0585899 -0.0588778 -0.0576639 -0.0592037 -0.0591 -0.0593935 -0.0591191 -0.059099 -0.0590702 -0.0591514 -0.059006 -0.0591505 -0.0591966
internal_weight=13.9109 10.0663 8.90909 2.00686 6.90223 0.706159 3.84458 0.661474 0.526707 1.15724 3.1831 0.40368 0.993138 2.77942 0.429899 0.720678 2.34952 0.42851 2.10569 1.67191 1.07385 0.474749 0.599103 0.598054 0.433783
internal_count=1000 409 220 109 111 76 591 113 86 189 478 70 157 408 70 110 338 62 301 236 153 67 86 83 65
is_linear=0
shrinkage=0.05


Tree=15
num_leaves=27
num_cat=0
split_feature=4 8 1 8 0 8 4 3 4 0 8 8 0 3 1 0 0 0 7 0 0 3 2 5 0 8
split_gain=6.0771 2.83686 1.34404 1.11312 0.546747 0.201207 0.155614 0.0406296 0.0587137 0.0186171 0.00487889 0.00477752 0.00750043 0.000423683 0.000361067 0.000847025 1.75103e-05 2.99061e-06 2.06918e-06 1.0269e-06 1.30631e-06 1.47317e-06 2.44805e-06 1.20788e-06 4.15627e-07 2.69908e-07
threshold=5250.0000000000009 4.1500000000000012 14.000000000000002 4.5500000000000007 332.00000000000006 4.8500000000000005 5750.0000000000009 154.00000000000003 4750.0000000000009 365.00000000000006 4.3500000000000005 4.7500000000000009 826.00000000000011 86.000000000000014 14.000000000000002 681.50000000000011 959.00000000000011 262.50000000000006 1.0000000180025095e-35 531.50000000000011 1224.5000000000002 30.000000000000004 384.00000000000006 6.2500000000000009 421.00000000000006 4.0500000000000007
decision_type=2 2 2 2 2 2 2 2 2 2 2 2 2 2 2 2 2 2 2 2 2 2 2 2 2 2
left_child=7 9 3 6 -5 -6 -3 11 10 -2 -9 14 -13 16 17 -16 -11 -1 -18 24 21 -21 23 -23 -19 -22
right_child=1 2 -4 4 5 -7 -8 8 -10 13 -12 12 -14 -15 15 -17 18 19 -20 20 25 22 -24 -25 -26 -27
leaf_value=-0.058120469556432401 -0.039208594141229604 -0.037540375620080613 0.05190205297303549 0.053317791716336542 -0.0048773565887623221 0.027221240907299632 -0.0059353470324629296 -0.058668602029755913 -0.022205335193140375 -0.058038891679069698 -0.047757881331569517 -0.043319649328248694 -0.05762271738357138 -0.055974313694947431 -0.053840255709793006 -0.058498269914678824 -0.05866446430799125 -0.058330953138722247 -0.058439276185813016 -0.05836959441932206 -0.058326134179671411 -0.058249299680489232 -0.058327978383616079 -0.058094149649597006 -0.058431220925809296 -0.058404830380758881
leaf_weight=0.23249685904011386 0.15911571640754008 0.8098521213978509 3.8870284258155152 1.3536512143909933 0.92899616027716536 1.0289671721402553 0.75030451384373009 0.25159109663218249 0.21603465965017676 0.27819092525169253 0.17285464983433485 0.14949114713817824 0.23692040395690128 0.25987715541850775 0.16031446692068119 0.24946855753660202 0.20665975054726005 0.21085916785523329 0.20145051740109921 0.25661329273134448 0.21803002664819349 0.22214942052960396 0.390803346876055 0.28818210121244192 0.20271134609356523 0.21779052820056677
leaf_count=37 32 36 42 22 48 34 38 39 41 48 33 30 40 47 31 39 31 34 31 38 32 33 58 44 31 31
internal_value=-2.37509e-10 0.0204494 0.0299746 0.0124794 0.0288839 0.0119914 -0.022341 -0.0548687 -0.0434249 -0.0550326 -0.0542252 -0.0572831 -0.0520893 -0.0576937 -0.0580406 -0.056676 -0.0583448 -0.0582902 -0.0585533 -0.0583099 -0.0582917 -0.0582639 -0.0582338 -0.0581617 -0.0583801 -0.0583655
internal_weight=13.5404 9.86409 8.7588 4.87177 3.31161 1.95796 1.56016 3.67631 0.64048 1.10529 0.424446 3.03583 0.386412 0.946178 2.64942 0.409783 0.686301 2.23964 0.40811 2.00714 1.59357 1.15775 0.901135 0.510332 0.413571 0.435821
internal_count=1000 409 220 178 104 82 74 591 113 189 72 478 70 157 408 70 110 338 62 301 236 173 135 77 65 63
is_linear=0
shrinkage=0.05


Tree=16
num_leaves=27
num_cat=0
split_feature=4 8 0 3 3 1 1 3 0 8 0 8 0 3 1 0 3 0 1 6 9 3 2 0 0 0
split_gain=5.60455 2.60014 1.28539 1.0451 1.00665 0.363518 0.274688 0.0465092 0.0661403 0.0251502 0.0207713 0.00569225 0.00857174 0.000472028 0.000420911 0.000948275 2.04748e-05 4.42033e-06 3.02501e-06 8.96454e-07 8.82495e-07 7.05082e-07 8.11516e-07 1.09664e-06 1.35069e-06 3.28585e-07
threshold=5250.0000000000009 4.1500000000000012 1061.5000000000002 154.00000000000003 57.000000000000007 10.000000000000002 14.000000000000002 154.00000000000003 421.00000000000006 4.3500000000000005 365.00000000000006 4.7500000000000009 826.00000000000011 86.000000000000014 14.000000000000002 681.50000000000011 57.000000000000007 262.50000000000006 10.000000000000002 110.00000000000001 1.0000000180025095e-35 30.000000000000004 384.00000000000006 1120.0000000000002 681.50000000000011 887.00000000000011
decision_type=2 2 2 2 2 2 2 2 2 2 2 2 2 2 2 2 2 2 2 2 2 2 2 2 2 2
left_child=7 10 4 -4 5 -3 -6 11 -9 -10 -2 14 -13 16 17 -16 18 -1 -12 20 21 -19 23 24 -23 -24
right_child=1 2 3 -5 6 -7 -8 8 9 -11 13 12 -14 -15 15 -17 -18 19 -20 -21 -22 22 25 -25 -26 -27
leaf_value=-0.057432790927225599 -0.03721342465426454 -0.014988574028294259 -0.046268277221147701 0.034895349765730166 0.037062162886246537 0.032292299437051024 0.059910979699405564 -0.0098213115000444148 -0.05855840392424904 -0.035172671562451005 -0.057738252493528132 -0.041307471648072552 -0.056840240151262912 -0.055103685189952671 -0.052797009527731711 -0.057835345090275214 -0.057225591878005078 -0.057768176236193305 -0.057999773858004304 -0.057591984438145644 -0.057589222050384761 -0.05769884024974084 -0.057766265979660864 -0.057737348743488015 -0.057518449352823256 -0.057682255403122377
leaf_weight=0.2225311915390219 0.15618414542404824 0.98536437842994729 0.91907829092815496 0.69771518651396036 2.5198931007180363 0.69205360789783299 2.7518377937376499 0.13052158430218685 0.30899244593456388 0.18309366895118728 0.28393993014469743 0.14609746716450889 0.2265534566831775 0.24886363768018782 0.1535252397879957 0.23842408321797848 0.19132089056074619 0.28508029831573356 0.18109851214103401 0.32149566058069456 0.21500327624380577 0.18312696693465091 0.26551379356533289 0.20588242774829268 0.239457743242383 0.20723551139235497
leaf_count=37 32 49 53 17 55 27 19 27 48 38 45 30 40 47 31 39 33 44 32 50 33 30 43 31 38 32
internal_value=-1.90774e-09 0.0197653 0.0289121 -0.0112427 0.0382546 0.00451813 0.0489892 -0.0538672 -0.0414641 -0.0498571 -0.0540526 -0.056521 -0.0507506 -0.0569579 -0.0573685 -0.0558618 -0.057661 -0.0576438 -0.0578401 -0.0576682 -0.0576835 -0.0576981 -0.0576799 -0.0576427 -0.0575966 -0.0577294
internal_weight=13.1599 9.62735 8.56594 1.61679 6.94915 1.67742 5.27173 3.53253 0.622608 0.492086 1.06141 2.90993 0.372651 0.905223 2.53728 0.391949 0.656359 2.14533 0.465038 1.9228 1.6013 1.3863 1.10122 0.628467 0.422585 0.472749
internal_count=1000 409 220 70 150 76 74 591 113 86 189 478 70 157 408 70 110 338 77 301 251 218 174 99 68 75
is_linear=0
shrinkage=0.05


Tree=17
num_leaves=28
num_cat=0
split_feature=4 8 1 0 1 0 3 3 0 3 4 0 8 0 8 8 1 0 5 0 3 0 2 4 4 0 5
split_gain=5.22956 2.42771 1.10895 0.669685 0.649197 0.449672 0.245769 0.163358 0.0800159 0.0483092 0.0667958 0.0275636 0.00605749 0.008749 0.00570797 0.00565614 0.000463571 0.00100196 1.37681e-05 4.69843e-06 8.214e-07 1.11756e-06 1.63708e-06 1.14289e-06 7.3203e-07 6.08563e-07 9.65679e-08
threshold=5250.0000000000009 4.5500000000000007 14.000000000000002 816.00000000000011 7.0000000000000009 583.00000000000011 86.000000000000014 154.00000000000003 625.50000000000011 154.00000000000003 4750.0000000000009 1411.5000000000002 4.7500000000000009 826.00000000000011 4.3500000000000005 4.1500000000000012 14.000000000000002 681.50000000000011 6.0500000000000007 262.50000000000006 30.000000000000004 1300.5000000000002 384.00000000000006 4750.0000000000009 4750.0000000000009 696.50000000000011 6.3500000000000005
decision_type=2 2 2 2 2 2 2 2 2 2 2 2 2 2 2 2 2 2 2 2 2 2 2 2 2 2 2
left_child=9 2 5 -4 -3 6 -2 8 -6 12 14 15 16 -14 -11 18 19 -18 -7 -1 26 22 23 25 -24 -22 -21
right_child=1 4 3 -5 7 11 -8 -9 -10 10 -12 -13 13 -15 -16 -17 17 -19 -20 20 21 -23 24 -25 -26 -27 -28
leaf_value=-0.056796744987526876 -0.031755963439170982 0.0098452102368000779 0.052761366472559079 -0.014039922802117123 0.051713819118212857 -0.056643011309907836 0.012908474414472133 0.062127996303122816 0.033943586789574438 -0.057326045715573051 -0.017504435160207492 -0.04035700750944024 -0.040194220144021992 -0.056098998413902285 -0.045196430695118153 -0.06522388362929292 -0.051896360353044207 -0.057182242873680858 -0.057187484922518343 -0.057081482889427028 -0.056985159485368954 -0.057135798613000603 -0.057117795688133147 -0.057048409843651261 -0.056995671428144247 -0.056868341141157755 -0.0571307485633889
leaf_weight=0.21348172076978045 0.71094480738974952 1.3234671477694062 0.81834187498316191 0.69280965614598244 1.1616651737131181 0.17453452153131344 0.54340971546480432 1.671387832611799 1.3932251825463025 0.23431352293118823 0.21046847722027451 0.2161310575902462 0.1433694923762231 0.21784984978148714 0.16549347684485838 0.34979152586311102 0.14745483128353942 0.22869862709194422 0.34683836414478719 0.18540931399911631 0.18272320041432955 0.20285648340359319 0.34946551779285073 0.238082823343575 0.18910526065155864 0.28596686478704214 0.21459219232201576
leaf_count=37 45 49 29 44 21 32 25 14 40 39 41 18 30 40 33 34 31 39 58 30 30 32 57 40 32 46 34
internal_value=-3.38132e-10 0.0192357 -0.0112569 0.0221353 0.0404046 -0.032806 -0.0124065 0.0499743 0.0420234 -0.0530499 -0.0403033 -0.0563399 -0.055829 -0.0497863 -0.0523052 -0.0603052 -0.0567243 -0.0551101 -0.0570052 -0.0570188 -0.0570445 -0.057027 -0.0570092 -0.0569592 -0.0570749 -0.0569139 -0.0571079
internal_weight=12.8119 9.40255 3.8528 1.51115 5.54975 2.34165 1.25435 4.22628 2.55489 3.40933 0.610275 1.0873 2.79906 0.361219 0.399807 0.871164 2.43784 0.376153 0.521373 2.06168 1.8482 1.4482 1.24534 0.706773 0.538571 0.46869 0.400002
internal_count=1000 409 285 73 124 212 70 75 61 591 113 142 478 70 72 124 408 70 90 338 301 237 205 116 89 76 64
is_linear=0
shrinkage=0.05


Tree=18
num_leaves=26
num_cat=0
split_feature=4 8 1 8 0 3 0 3 0 0 8 0 3 1 0 3 1 0 6 18 3 2 0 0 7
split_gain=4.90927 2.31674 1.20445 0.933779 0.46205 0.800328 0.179192 0.0535285 0.0717105 0.0214293 0.00693815 0.0100468 0.000613709 0.000516145 0.0010762 2.63062e-05 9.30728e-06 6.26578e-06 1.24896e-06 1.20049e-06 9.25593e-07 1.00949e-06 6.89013e-07 1.11999e-06 4.79777e-07
threshold=5250.0000000000009 4.1500000000000012 14.000000000000002 4.5500000000000007 332.00000000000006 86.000000000000014 397.00000000000006 154.00000000000003 878.00000000000011 365.00000000000006 4.7500000000000009 826.00000000000011 86.000000000000014 14.000000000000002 681.50000000000011 57.000000000000007 10.000000000000002 262.50000000000006 110.00000000000001 1.0000000180025095e-35 30.000000000000004 768.00000000000011 1221.5000000000002 931.50000000000011 1.0000000180025095e-35
decision_type=2 2 2 2 2 2 2 2 2 2 2 2 2 2 2 2 2 2 2 2 2 2 2 2 2
left_child=7 9 3 6 -5 -6 -3 10 -9 -2 13 -12 15 17 -15 16 -11 -1 19 -19 -21 22 23 24 -22
right_child=1 2 -4 4 5 -7 -8 8 -10 12 11 -13 -14 14 -16 -17 -18 18 -20 20 21 -23 -24 -25 -26
leaf_value=-0.056252411106754878 -0.035559254121392762 -0.0070122011883927337 0.050024043377254301 0.050444263184440119 -0.029014949570242289 0.036438351266203498 -0.04218213451940464 -0.019917651990308451 -0.054559718881025399 -0.056636197717751503 -0.038336457682417863 -0.055566972917257651 -0.053609799912030187 -0.051106455335656234 -0.056660119032106271 -0.056107357401747673 -0.057106057801696822 -0.056448453465256523 -0.05645041625090156 -0.056663632447621216 -0.056599460764286957 -0.056660099256879586 -0.056619543494507353 -0.056404609591030976 -0.056496899586399432
leaf_weight=0.20560384518467101 0.15457727340981253 0.88366674445569315 3.4639735362725332 1.2307719774544241 0.75590876978822041 1.2220792552689088 0.61369951255619526 0.2750505472649819 0.32697969675064087 0.26325294421985745 0.14099851378705341 0.2115060591022484 0.23398440040182322 0.14408935664687295 0.22106419689953327 0.18056409596465528 0.1757664664182812 0.1993064875714482 0.29759414284490038 0.26481384364888039 0.24356168415397383 0.1980143547989428 0.18427812168374658 0.1812675348483026 0.21440826635807753
leaf_count=37 32 25 42 22 54 28 49 58 55 45 30 40 47 31 39 33 32 33 50 44 42 34 30 30 38
internal_value=1.64564e-09 0.0188231 0.0276474 0.0111769 0.0263913 0.0114247 -0.0214267 -0.0522174 -0.0387327 -0.0526893 -0.0552169 -0.0486749 -0.0557915 -0.0561965 -0.0544686 -0.0566154 -0.0568243 -0.0565138 -0.0565439 -0.0565626 -0.0565803 -0.0565587 -0.0565344 -0.0565098 -0.0565514
internal_weight=12.4868 9.17824 8.1701 4.70613 3.20876 1.97799 1.49737 3.30854 0.60203 1.00815 2.70651 0.352505 0.853568 2.354 0.365154 0.619584 0.439019 1.98885 1.78324 1.48565 1.28634 1.02153 0.823516 0.639237 0.45797
internal_count=1000 409 220 178 104 82 74 591 113 189 478 70 157 408 70 110 77 338 301 251 218 174 140 110 80
is_linear=0
shrinkage=0.05


Tree=19
num_leaves=26
num_cat=0
split_feature=4 8 3 1 0 1 1 3 4 1 8 0 8 8 1 0 0 6 18 0 11 3 2 0 0
split_gain=4.57923 2.193 0.990129 0.547555 0.49062 0.349311 0.152082 0.0565422 0.0725008 0.0331666 0.00746229 0.0107407 0.00737964 0.00276745 0.00055643 0.00111563 5.29104e-06 1.27127e-06 1.02724e-06 9.63357e-07 7.17808e-07 1.50863e-06 1.30564e-06 1.39775e-06 5.245e-08
threshold=5250.0000000000009 4.5500000000000007 154.00000000000003 7.0000000000000009 649.00000000000011 10.000000000000002 14.000000000000002 154.00000000000003 4750.0000000000009 14.000000000000002 4.7500000000000009 826.00000000000011 4.3500000000000005 4.1500000000000012 14.000000000000002 681.50000000000011 262.50000000000006 110.00000000000001 1.0000000180025095e-35 1120.0000000000002 1.0000000180025095e-35 30.000000000000004 384.00000000000006 1081.5000000000002 819.00000000000011
decision_type=2 2 2 2 2 2 2 2 2 2 2 2 2 2 2 2 2 2 2 2 2 2 2 2 2
left_child=7 2 4 -3 5 -2 -5 10 12 13 14 -12 -9 19 16 -16 -1 18 -18 -6 21 -20 23 -23 -24
right_child=1 3 -4 6 9 -7 -8 8 -10 -11 11 -13 -14 -15 15 -17 17 -19 20 -21 -22 22 24 -25 -26
leaf_value=-0.055815500528751449 -0.029340209877660769 0.01096824014408276 0.031225104472854981 0.03687171616924502 -0.05631707109723133 0.021292945739857756 0.0564172851521893 -0.056398574646966085 -0.013671657918644732 -0.042073134264020262 -0.037003331745291107 -0.055108889826695401 -0.042251765153325474 -0.062716468231830594 -0.050401326374582715 -0.056176045949418718 -0.05600065933490616 -0.055992861746226689 -0.05625349176539092 -0.056162688355153027 -0.056029456404840285 -0.055988417047853324 -0.056202474065747667 -0.056164659330512345 -0.056163911209027972
leaf_weight=0.19693312700838062 0.80989686446264275 1.3553495402447877 0.96121707459678862 1.7951623639091847 0.1903704344294963 0.58788451261352748 2.2334069929784164 0.22039213241077948 0.20678212080383673 0.51629986078478396 0.13764428312424559 0.2023008831019979 0.15846761391730979 0.27723642345517874 0.13838557293638576 0.21140458760783076 0.19118857989087712 0.28531764517538238 0.23096174607053332 0.21536285476759076 0.16886828420683753 0.29710977245122194 0.16414109105244279 0.18105414323508739 0.19052255665883422
leaf_count=37 50 49 50 55 34 38 20 39 41 45 30 40 33 30 31 39 33 50 40 38 30 54 30 31 33
internal_value=2.19053e-09 0.0183291 -0.0121286 0.0384588 -0.0281746 -0.00804471 0.0477076 -0.0515178 -0.0374843 -0.0516365 -0.0546839 -0.0477779 -0.0504813 -0.0588661 -0.0557245 -0.0538914 -0.0560609 -0.0560892 -0.0561085 -0.0562351 -0.0561252 -0.0561404 -0.0561091 -0.0560552 -0.0561818
internal_weight=12.1237 8.94219 3.55827 5.38392 2.59705 1.39778 4.02857 3.18147 0.585642 1.19927 2.59583 0.339945 0.37886 0.68297 2.25589 0.34979 1.9061 1.70916 1.42385 0.405733 1.23266 1.06379 0.832828 0.478164 0.354664
internal_count=1000 409 285 124 235 88 75 591 113 147 478 70 72 102 408 70 338 301 251 72 218 188 148 85 63
is_linear=0
shrinkage=0.05


Tree=20
num_leaves=27
num_cat=0
split_feature=4 8 1 0 8 3 3 0 8 0 4 8 0 1 0 3 8 0 6 0 9 3 2 0 0 1
split_gain=4.25739 2.0444 1.07845 0.744835 0.519725 0.405389 0.0647258 0.0984904 0.0329395 0.0224917 0.0182118 0.00749207 0.0105096 0.00060611 0.00120343 0.000559218 1.84074e-05 3.93595e-06 3.0249e-06 1.09215e-06 9.78948e-07 7.64986e-07 1.04581e-06 1.41501e-06 9.91632e-07 4.78962e-07
threshold=5250.0000000000009 4.1500000000000012 14.000000000000002 856.00000000000011 4.5500000000000007 154.00000000000003 154.00000000000003 411.00000000000006 4.3500000000000005 365.00000000000006 5750.0000000000009 4.7500000000000009 826.00000000000011 14.000000000000002 681.50000000000011 86.000000000000014 3.8500000000000001 1007.5000000000001 110.00000000000001 290.50000000000006 1.0000000180025095e-35 30.000000000000004 384.00000000000006 1120.0000000000002 701.50000000000011 7.0000000000000009
decision_type=2 2 2 2 2 2 2 2 2 2 2 2 2 2 2 2 2 2 2 2 2 2 2 2 2 2
left_child=6 9 3 4 -3 10 11 -8 -9 -2 -5 13 -13 18 -15 16 17 -11 19 -1 21 -21 23 24 -23 -24
right_child=1 2 -4 5 -6 -7 7 8 -10 15 -12 12 -14 14 -16 -17 -18 -19 -20 20 -22 22 25 -25 -26 -27
leaf_value=-0.055575470050445101 -0.033957081728519557 -0.0057879417130508133 0.048272059139030758 -0.055018357263903472 0.036454463639495206 0.011575612476081992 0.0060945796372391999 -0.056483684220918817 -0.028951122405914843 -0.056217824186036658 -0.039092164044567286 -0.036425712988272213 -0.054629805477762042 -0.049672019023594083 -0.055785736465443249 -0.052855328377577483 -0.055459973742581853 -0.055881750922935659 -0.055520602852309253 -0.055805373434811734 -0.055602031623667517 -0.055690249759569682 -0.055814893359651285 -0.055775561991648771 -0.055522408971801787 -0.055704387748707701
leaf_weight=0.17072160099633249 0.15131673222640341 1.0769301506225022 3.2386588281951845 0.35656681749969699 2.2482447749935091 0.50177962891757488 0.11358448589453463 0.28275292832404375 0.17641033616382629 0.16546251019462943 0.36147444695234299 0.13398136070463795 0.19420812028693035 0.13360299076884974 0.20247935364022851 0.22136858990415931 0.22365041589364409 0.18400434544309974 0.29854980646632601 0.24333073711022712 0.18272211356088508 0.16724432166665792 0.22565542999655008 0.1757782306522131 0.18573464825749397 0.17340768198482692
leaf_count=33 32 40 42 32 59 19 25 49 39 31 28 30 40 31 39 47 46 33 56 44 33 32 42 31 35 32
internal_value=-1.23985e-10 0.0177898 0.0262244 0.0105138 0.0227733 -0.0229051 -0.0507473 -0.0355933 -0.0459057 -0.0516248 -0.0470008 -0.0542367 -0.0471981 -0.0553065 -0.0533553 -0.0549898 -0.0558142 -0.0560409 -0.0556661 -0.0556946 -0.0557097 -0.0557265 -0.0557058 -0.0556597 -0.0556019 -0.0557669
internal_weight=11.7896 8.72946 7.78365 4.545 3.32517 1.21982 3.06016 0.572748 0.459163 0.945803 0.718041 2.48742 0.328189 2.15923 0.336082 0.794486 0.573117 0.349467 1.82314 1.52459 1.35387 1.17115 0.92782 0.528757 0.352979 0.399063
internal_count=1000 409 220 178 99 79 591 113 88 189 60 478 70 408 70 157 110 64 338 282 249 216 172 98 67 74
is_linear=0
shrinkage=0.05


Tree=21
num_leaves=27
num_cat=0
split_feature=4 8 3 1 0 0 3 0 4 8 0 8 0 1 0 3 8 0 0 6 18 11 3 2 0 8
split_gain=3.9053 1.86122 1.01083 0.566323 0.562698 0.23316 0.0714373 0.101724 0.0559499 0.0345371 0.0244745 0.00842894 0.0114016 0.00068338 0.00132442 0.000622475 2.13126e-05 3.39001e-06 3.22987e-06 1.29177e-06 8.03252e-07 8.7082e-07 1.4786e-06 1.28831e-06 1.74975e-06 5.52951e-08
threshold=5250.0000000000009 4.1500000000000012 57.000000000000007 10.000000000000002 477.50000000000006 316.50000000000006 154.00000000000003 411.00000000000006 5750.0000000000009 4.3500000000000005 365.00000000000006 4.7500000000000009 826.00000000000011 14.000000000000002 681.50000000000011 86.000000000000014 3.8500000000000001 257.00000000000006 1007.5000000000001 110.00000000000001 1.0000000180025095e-35 1.0000000180025095e-35 30.000000000000004 384.00000000000006 1081.5000000000002 4.0500000000000007
decision_type=2 2 2 2 2 2 2 2 2 2 2 2 2 2 2 2 2 2 2 2 2 2 2 2 2 2
left_child=6 10 4 5 -3 -4 11 -8 -6 -9 -2 13 -13 17 -15 16 18 -1 -12 20 -19 22 -22 24 -24 -25
right_child=1 2 3 -5 8 -7 7 9 -10 -11 15 12 -14 14 -16 -17 -18 19 -20 -21 21 -23 23 25 -26 -27
leaf_value=-0.055035961784803689 -0.032141123357182548 0.014005093840957284 0.035021658918271713 0.048175215613582331 -0.057147566260599615 0.0016854709311013181 0.0080933956709606548 -0.055896979645074819 -0.02855795525726465 -0.027190245631698341 -0.055754989996622518 -0.034734151029290776 -0.054065638349082991 -0.048776833759624993 -0.055352201161046957 -0.052136971171312212 -0.054948504931676329 -0.055188526125054364 -0.055442513114201064 -0.055166274692175415 -0.05543877280109949 -0.05519325599513987 -0.055153905520288961 -0.055344891890958571 -0.055360764036774236 -0.055386116165487477
leaf_weight=0.17441283306107136 0.14695174561347624 1.2342047127895055 0.90176630020141635 3.5193401435390115 0.33419136703014363 1.2538134173955766 0.11511200689710666 0.26853695325553417 0.35072256531566381 0.17181051609804854 0.15709971357136965 0.1301884043496101 0.18417842983035371 0.12746183038689185 0.19184889597818255 0.21034446253906935 0.21182401524856687 0.17322852811776113 0.17461195681244135 0.25812708749435831 0.21094283973798111 0.15284820832312107 0.26853289036080241 0.17444776953198016 0.16506668925285339 0.15241040149703622
leaf_count=36 32 36 19 47 37 45 25 49 36 39 31 30 40 31 39 47 46 33 33 50 40 30 54 34 31 30
internal_value=-1.39833e-09 0.0171446 0.0252054 0.0358136 -0.00616376 0.0156313 -0.0498916 -0.0337564 -0.0425077 -0.0446965 -0.0508079 -0.0536833 -0.0460599 -0.0548527 -0.0527275 -0.0544465 -0.0553403 -0.055245 -0.0555905 -0.0552684 -0.0552887 -0.0553042 -0.0553216 -0.0552892 -0.0552327 -0.0553641
internal_weight=11.414 8.49487 7.59404 5.67492 1.91912 2.15558 2.91915 0.555459 0.684914 0.440347 0.900832 2.36369 0.314367 2.04933 0.319311 0.75388 0.543536 1.73002 0.331712 1.5556 1.29748 1.12425 0.971401 0.760458 0.4336 0.326858
internal_count=1000 409 220 111 109 64 591 113 73 88 189 478 70 408 70 157 110 338 64 302 252 219 189 149 85 64
is_linear=0
shrinkage=0.05


Tree=22
num_leaves=26
num_cat=0
split_feature=4 8 3 1 0 0 1 3 0 8 1 8 0 8 1 0 0 6 0 18 3 2 0 0 1
split_gain=3.58606 1.73488 0.744302 0.552487 0.441342 0.320527 0.309545 0.0794084 0.106514 0.0367122 0.0323377 0.00936354 0.0123373 0.00182002 0.000757729 0.00143634 3.35344e-06 1.13954e-06 1.06143e-06 8.46396e-07 7.00059e-07 1.00874e-06 1.31456e-06 8.10476e-07 4.07148e-07
threshold=5250.0000000000009 4.5500000000000007 154.00000000000003 10.000000000000002 649.00000000000011 332.00000000000006 10.000000000000002 154.00000000000003 411.00000000000006 4.3500000000000005 14.000000000000002 4.7500000000000009 826.00000000000011 4.1500000000000012 14.000000000000002 681.50000000000011 257.00000000000006 110.00000000000001 1120.0000000000002 1.0000000180025095e-35 30.000000000000004 384.00000000000006 1120.0000000000002 681.50000000000011 7.0000000000000009
decision_type=2 2 2 2 2 2 2 2 2 2 2 2 2 2 2 2 2 2 2 2 2 2 2 2 2
left_child=7 2 4 5 6 -3 -2 11 -9 -10 13 14 -13 18 16 -16 -1 19 -6 -18 -21 22 23 -22 -23
right_child=1 3 -4 -5 10 -7 -8 8 9 -11 -12 12 -14 -15 15 -17 17 -19 -20 20 21 24 -24 -25 -26
leaf_value=-0.054656001299604476 -0.027487242926308393 0.04138235436344876 0.027757075215296346 0.049806438181757638 -0.055106146768319986 0.00090544251738495412 0.020646246201387154 0.01051210944955617 -0.055395255454607176 -0.02533301815758944 -0.039854028648428852 -0.033059257965540281 -0.053567442441627977 -0.060601926430013414 -0.047947757934878196 -0.054964109043824642 -0.054807376830776605 -0.0547948969485932 -0.054931838425502838 -0.055008789127886773 -0.054893367267699937 -0.055018197149487816 -0.054978656123891037 -0.054733224061908142 -0.054912239195673541
leaf_weight=0.16533272387460041 0.77542723855003604 0.77799500152468715 0.89131321385502804 2.8308299513300881 0.1652533176820723 1.3170861434191463 0.58677176584023982 0.11650955613004033 0.25583822350017726 0.1684064423898235 0.47304119728505611 0.12625166482757766 0.17496014351490885 0.2494215490296483 0.12176624592393626 0.18191087990999222 0.16425582929514315 0.24465851252898563 0.18522998783737421 0.21990771405398846 0.13976521301083267 0.20383364032022655 0.15884816693142056 0.18174147605895996 0.16329119517467916
leaf_count=36 50 17 50 47 34 60 38 25 49 39 45 30 40 30 31 39 33 50 38 44 30 42 31 38 34
internal_value=-9.97972e-10 0.0165616 -0.0113361 0.0354008 -0.025645 0.0159363 -0.00675358 -0.0490344 -0.0318328 -0.0434619 -0.0496293 -0.0531749 -0.0449715 -0.0573373 -0.0544451 -0.0521507 -0.0548695 -0.0548935 -0.055014 -0.054913 -0.0549293 -0.0549087 -0.054861 -0.0548028 -0.0549711
internal_weight=11.0396 8.25237 3.32646 4.92591 2.43515 2.09508 1.3622 2.78728 0.540754 0.424245 1.07295 2.24652 0.301212 0.599905 1.94531 0.303677 1.64163 1.4763 0.350483 1.23164 1.06739 0.84748 0.480355 0.321507 0.367125
internal_count=1000 409 285 124 235 77 88 591 113 88 147 478 70 102 408 70 338 302 72 252 219 175 99 68 76
is_linear=0
shrinkage=0.05


Tree=23
num_leaves=26
num_cat=0
split_feature=4 8 3 1 0 1 0 3 4 1 8 0 8 8 1 0 0 6 0 18 3 2 0 0 1
split_gain=3.29336 1.62092 0.715035 0.537656 0.365596 0.242835 0.163986 0.0881228 0.11172 0.0347218 0.0103164 0.0132212 0.0093598 0.00146464 0.000855981 0.001585 3.58285e-06 1.14861e-06 1.03848e-06 8.74243e-07 6.95312e-07 8.81469e-07 1.27528e-06 8.43472e-07 4.58082e-07
threshold=5250.0000000000009 4.5500000000000007 154.00000000000003 7.0000000000000009 649.00000000000011 10.000000000000002 404.50000000000006 154.00000000000003 4750.0000000000009 14.000000000000002 4.7500000000000009 826.00000000000011 4.3500000000000005 4.1500000000000012 14.000000000000002 681.50000000000011 290.50000000000006 110.00000000000001 1120.0000000000002 1.0000000180025095e-35 30.000000000000004 384.00000000000006 1120.0000000000002 701.50000000000011 7.0000000000000009
decision_type=2 2 2 2 2 2 2 2 2 2 2 2 2 2 2 2 2 2 2 2 2 2 2 2 2
left_child=7 2 4 -3 5 -2 -5 10 12 13 14 -12 -9 18 16 -16 -1 19 -6 -18 -21 22 23 -22 -23
right_child=1 3 -4 6 9 -7 -8 8 -10 -11 11 -13 -14 -15 15 -17 17 -19 -20 20 21 24 -24 -25 -26
leaf_value=-0.054348982427813525 -0.026732270504931429 0.0059589051399625316 0.02656117072653635 0.057299791367429756 -0.054801205638936229 0.016774121406775373 0.035434353981388375 -0.054844971518022971 0.00014537978964072925 -0.03817915358957108 -0.03147225488430249 -0.05311599339323652 -0.037962183166590342 -0.059854939927097409 -0.047100382641741372 -0.054648372928437966 -0.05450384334386639 -0.054492188921052544 -0.054624281953220714 -0.054712406239382609 -0.054592459718178825 -0.054721067654318313 -0.054682582656879114 -0.054424656243626968 -0.054604260922273523
leaf_weight=0.16749532637186515 0.77601787634193786 1.2461318827699868 0.89232892869040359 1.4185721054673197 0.15698813693597891 0.5466818087734282 2.1679878555005416 0.18843156634829927 0.19495694886427373 0.44308613194152713 0.12245720485225309 0.16648333152988926 0.14547566446708515 0.23634943598881364 0.1165532215964048 0.17247261782176793 0.15555596817284789 0.23181333672255267 0.17584102135151625 0.20888329762965441 0.14269997691735625 0.19363550771959126 0.15086785471066833 0.1575875598937273 0.14815896656364202
leaf_count=39 50 49 50 19 34 38 56 39 41 45 30 40 33 30 31 39 33 50 38 44 32 42 31 35 32
internal_value=-5.15257e-10 0.0159288 -0.0115096 0.0342523 -0.0260588 -0.00875075 0.0440827 -0.0482014 -0.0299297 -0.0486747 -0.0527282 -0.0439431 -0.0474895 -0.0568451 -0.0541035 -0.0516046 -0.0545674 -0.0545938 -0.0547077 -0.0546141 -0.0546312 -0.0546099 -0.054564 -0.0545044 -0.0546704
internal_weight=10.7235 8.05999 3.22729 4.83269 2.33496 1.3227 3.58656 2.66353 0.528864 1.01226 2.13466 0.288941 0.333907 0.569179 1.84572 0.289026 1.5567 1.3892 0.332829 1.15739 1.00183 0.79295 0.451155 0.300288 0.341794
internal_count=1000 409 285 124 235 88 75 591 113 147 478 70 72 102 408 70 338 299 72 249 216 172 98 67 74
is_linear=0
shrinkage=0.05


Tree=24
num_leaves=26
num_cat=0
split_feature=4 8 3 1 0 0 1 3 0 8 1 8 0 8 1 0 0 0 3 0 2 0 3 3 0
split_gain=3.1151 1.60976 0.711065 0.520861 0.332257 0.27606 0.238922 0.0897982 0.11118 0.0406996 0.0339986 0.00975293 0.0117435 0.00119796 0.00078237 0.00139087 2.747e-06 1.4535e-06 1.79751e-06 2.87195e-06 1.57297e-06 1.2832e-06 1.24601e-06 1.08525e-06 2.704e-07
threshold=5250.0000000000009 4.5500000000000007 154.00000000000003 10.000000000000002 332.00000000000006 649.00000000000011 10.000000000000002 154.00000000000003 411.00000000000006 4.3500000000000005 14.000000000000002 4.7500000000000009 826.00000000000011 4.1500000000000012 14.000000000000002 681.50000000000011 290.50000000000006 1224.5000000000002 30.000000000000004 951.50000000000011 384.00000000000006 1120.0000000000002 57.000000000000007 57.000000000000007 649.00000000000011
decision_type=2 2 2 2 2 2 2 2 2 2 2 2 2 2 2 2 2 2 2 2 2 2 2 2 2
left_child=7 2 5 4 -3 6 -2 11 -9 -10 13 14 -13 21 16 -16 -1 18 -18 20 22 -7 -20 -19 -22
right_child=1 3 -4 -5 -6 10 -8 8 9 -11 -12 12 -14 -15 15 -17 17 23 19 -21 24 -23 -24 -25 -26
leaf_value=-0.054194390537724693 -0.031384370658732744 0.040953258699788567 0.024890322851133587 0.047736524014980394 -0.00057295745470581567 -0.054627328349816089 0.013363620970367571 0.01375480933779976 -0.054930960111863075 -0.022482036279553932 -0.037477614008506806 -0.03207843965818654 -0.052788858544717369 -0.059290128041285986 -0.04720450474687829 -0.054422647557759198 -0.054508040228912348 -0.054421591635001834 -0.054415223704209904 -0.054197402093627924 -0.054443365908379164 -0.054426513537013124 -0.054211132512855989 -0.054614241262466723 -0.054542634117780903
leaf_weight=0.160773971583695 0.70339179690927334 0.75883732177317176 0.88906479632714752 2.760257218265906 1.3188977590762077 0.15085648931562889 0.51795089349616319 0.11645175988087419 0.23786821751855314 0.16275185253471136 0.4145771109033376 0.12009166041389097 0.15916679729707539 0.22422565892338753 0.11226243176497508 0.16457813954912126 0.23202182888053335 0.15685551473870862 0.18101301486603916 0.22280311677604914 0.13095934968441725 0.16829942632466555 0.12743313482496887 0.13690959243103862 0.14406706881709397
leaf_count=39 50 17 50 47 60 34 38 25 49 39 45 30 40 30 31 39 51 34 41 50 31 38 31 29 32
internal_value=-1.64919e-09 0.0155355 -0.0127942 0.0335028 0.0145934 -0.0281679 -0.0124075 -0.0478678 -0.0292485 -0.0417486 -0.0482615 -0.0525665 -0.0438826 -0.0564892 -0.0539369 -0.0514956 -0.0543896 -0.0544132 -0.0543854 -0.0543501 -0.0544084 -0.0545214 -0.0543309 -0.0545114 -0.0544954
internal_weight=10.4724 7.90636 3.06837 4.83799 2.07774 2.1793 1.22134 2.56601 0.517072 0.40062 0.957959 2.04894 0.279258 0.543382 1.76968 0.276841 1.49284 1.33206 1.0383 0.806276 0.583473 0.319156 0.308446 0.293765 0.275026
internal_count=1000 409 285 124 77 235 88 591 113 88 147 478 70 102 408 70 338 299 236 185 135 72 72 63 63
is_linear=0
shrinkage=0.05


Tree=25
num_leaves=28
num_cat=0
split_feature=4 8 1 0 8 4 3 3 4 8 0 8 0 8 1 0 1 1 5 0 0 3 0 1 2 3 7
split_gain=2.88279 1.46729 0.985845 0.70575 0.458768 0.397345 0.259865 0.0945088 0.117022 0.0413822 0.0317232 0.0106952 0.0130236 0.00953207 0.000850172 0.0014995 0.000575824 1.59699e-05 4.83577e-06 2.69961e-06 1.27867e-06 1.5874e-06 2.54311e-06 1.34056e-06 1.03234e-06 9.4412e-07 4.46837e-07
threshold=5250.0000000000009 4.1500000000000012 14.000000000000002 856.00000000000011 4.7500000000000009 5750.0000000000009 154.00000000000003 154.00000000000003 4750.0000000000009 4.7500000000000009 365.00000000000006 4.7500000000000009 826.00000000000011 4.3500000000000005 14.000000000000002 681.50000000000011 14.000000000000002 7.0000000000000009 6.4500000000000011 290.50000000000006 1224.5000000000002 30.000000000000004 951.50000000000011 7.0000000000000009 384.00000000000006 57.000000000000007 1.0000000180025095e-35
decision_type=2 2 2 2 2 2 2 2 2 2 2 2 2 2 2 2 2 2 2 2 2 2 2 2 2 2 2
left_child=7 10 3 4 5 -3 9 11 13 -5 -2 14 -13 -9 19 -16 17 18 -12 -1 21 -21 23 24 -23 -22 -25
right_child=1 2 -4 6 -6 -7 -8 8 -10 -11 16 12 -14 -15 15 -17 -18 -19 -20 20 25 22 -24 26 -26 -27 -28
leaf_value=-0.05393170648888123 -0.027691156838826076 -0.02215388611222166 0.045912996961106213 -0.059406858904452367 0.041758314330239535 0.02579882169490167 0.002106530983491671 -0.054490555479361907 0.0027876848090191589 -0.034468992288924541 -0.05484298498515925 -0.030390625922621095 -0.052584668721791628 -0.036990161488158944 -0.046495397760002527 -0.054164645878064778 -0.050991878600017186 -0.054063896507518021 -0.05442673054175852 -0.054245944858842932 -0.05416299562404743 -0.05412923101448424 -0.053946140299304661 -0.054141726114907786 -0.054319914579850019 -0.054347342392556924 -0.05401241294311683
leaf_weight=0.15238968469202552 0.14485985814826552 0.83194127772003434 2.7171907415613532 0.32102738507091977 1.3348743492970241 0.89861653279513121 0.46872163214720786 0.17487414251081634 0.19236413162434474 0.34527435479685664 0.14169243606738746 0.1172379198251291 0.1515361562196631 0.14018289971863851 0.10755334515124548 0.15644261240959167 0.16699274384882301 0.21397379413247108 0.13746364531107247 0.22046864777803399 0.14895343501120806 0.14011755608953536 0.21141140791587532 0.12085870350711048 0.14385059871710837 0.13013121508993208 0.1493653969373554
leaf_count=39 32 32 42 35 36 31 19 39 41 25 33 30 40 33 31 39 42 51 31 51 34 34 50 29 34 29 38
internal_value=5.74614e-10 0.01501 0.0224446 0.00726338 0.0197345 0.00274623 -0.0264181 -0.0471639 -0.0279415 -0.0464842 -0.0488798 -0.052165 -0.0429037 -0.0467039 -0.0536453 -0.0510402 -0.0535295 -0.0543889 -0.054638 -0.0541305 -0.0541545 -0.0541277 -0.0540937 -0.05415 -0.0542258 -0.054249 -0.0540702
internal_weight=10.1804 7.72263 6.91765 4.20046 3.06543 1.73056 1.13502 2.45774 0.507421 0.666302 0.804982 1.95032 0.268774 0.315057 1.68154 0.263996 0.660123 0.49313 0.279156 1.41755 1.26516 0.986072 0.765604 0.554192 0.283968 0.279085 0.270224
internal_count=1000 409 220 178 99 63 79 591 113 60 189 478 70 72 408 70 157 115 64 338 299 236 185 135 68 63 67
is_linear=0
shrinkage=0.05


Tree=26
num_leaves=27
num_cat=0
split_feature=4 8 3 3 0 1 0 8 3 1 8 1 8 0 1 0 8 0 0 3 2 0 0 3 1 1
split_gain=2.688 1.38543 0.597924 0.504077 0.263712 0.163606 0.149038 0.126319 0.0980022 0.120513 0.167544 0.0297013 0.0107664 0.0136067 0.00092529 0.00161658 0.000810451 2.88319e-06 9.40626e-07 1.19762e-06 1.91349e-06 1.08231e-06 8.8556e-07 7.28769e-07 4.44562e-07 3.30376e-08
threshold=5250.0000000000009 4.5500000000000007 154.00000000000003 57.000000000000007 649.00000000000011 10.000000000000002 438.00000000000006 4.8500000000000005 154.00000000000003 7.0000000000000009 4.1500000000000012 14.000000000000002 4.7500000000000009 826.00000000000011 14.000000000000002 681.50000000000011 4.1500000000000012 290.50000000000006 1224.5000000000002 30.000000000000004 384.00000000000006 816.00000000000011 1120.0000000000002 57.000000000000007 7.0000000000000009 7.0000000000000009
decision_type=2 2 2 2 2 2 2 2 2 2 2 2 2 2 2 2 2 2 2 2 2 2 2 2 2 2
left_child=8 2 4 6 5 -2 -3 -5 12 -10 -11 16 14 -14 17 -16 22 -1 19 -19 21 25 -6 -20 -22 -21
right_child=1 3 -4 7 11 -7 -8 -9 9 10 -12 -13 13 -15 15 -17 -18 18 23 20 24 -23 -24 -25 -26 -27
leaf_value=-0.05365443188284047 -0.02702760771487599 0.023014466154743576 0.022697823853394583 0.032086561158416113 -0.05407644917896573 0.010941207659891726 -0.013652054940947927 0.05117636697823439 -0.055569322731371197 -0.039634759649797464 0.03749827409180681 -0.03728912332675665 -0.029543290922483884 -0.052585448368442048 -0.045761923952253702 -0.053900849760863748 -0.058101105846394323 -0.053972047539338347 -0.053896014966508955 -0.053851121064211582 -0.05398058958827643 -0.053666295313867102 -0.053901186937671541 -0.054061855698563824 -0.053862769567990978 -0.053814078250029609
leaf_weight=0.14503371878527138 0.68795475014485485 0.49749342352151849 0.85936035681515921 1.8317841649986806 0.13675430510193098 0.48284356540534645 0.6256991148693487 1.6445864159613846 0.20984387001954008 0.15986084775067866 0.12580825190525502 0.39535933313891292 0.11508557340130199 0.14452926861122251 0.10335177939850826 0.14891972672194242 0.20378340873867273 0.21025828248821177 0.14203610923141241 0.11780866258777678 0.17743439460173249 0.16610174463130534 0.15238869469612837 0.12414339277893305 0.14589551114477217 0.12307520990725607
leaf_count=39 50 14 50 38 34 38 47 25 41 35 37 45 30 40 31 39 30 51 34 30 44 42 38 29 37 32
internal_value=-4.42538e-10 0.0146116 -0.0123343 0.0317089 -0.026955 -0.0113691 0.00258857 0.0411175 -0.0465627 -0.0267992 -0.00566548 -0.047498 -0.0518174 -0.042371 -0.0533463 -0.0505665 -0.0556861 -0.0538651 -0.0538904 -0.0538669 -0.0538366 -0.0537645 -0.0539841 -0.0539734 -0.0539274 -0.0538322
internal_weight=9.87719 7.51801 2.91844 4.59956 2.05908 1.1708 1.12319 3.47637 2.35919 0.495513 0.285669 0.888286 1.86367 0.259615 1.60406 0.252272 0.492926 1.35179 1.20675 0.940574 0.730316 0.406986 0.289143 0.26618 0.32333 0.240884
internal_count=1000 409 285 124 235 88 61 63 591 113 72 147 478 70 408 70 102 338 299 236 185 104 72 63 81 62
is_linear=0
shrinkage=0.05


Tree=27
num_leaves=27
num_cat=0
split_feature=4 8 1 0 8 4 1 3 1 8 0 8 0 1 0 1 1 7 0 0 3 2 0 3 5 3
split_gain=2.45506 1.27659 0.921754 0.662108 0.377463 0.380521 0.223933 0.104929 0.12402 0.160106 0.0340289 0.0123343 0.0144225 0.00103499 0.00176898 0.000726016 1.3649e-05 5.33214e-06 3.12758e-06 1.07376e-06 1.29028e-06 2.02853e-06 1.13606e-06 7.88758e-07 4.46888e-07 4.34162e-07
threshold=5250.0000000000009 4.1500000000000012 14.000000000000002 856.00000000000011 4.7500000000000009 5750.0000000000009 10.000000000000002 154.00000000000003 7.0000000000000009 4.1500000000000012 365.00000000000006 4.7500000000000009 826.00000000000011 14.000000000000002 681.50000000000011 14.000000000000002 7.0000000000000009 1.0000000180025095e-35 290.50000000000006 1224.5000000000002 30.000000000000004 384.00000000000006 816.00000000000011 57.000000000000007 6.5500000000000007 57.000000000000007
decision_type=2 2 2 2 2 2 2 2 2 2 2 2 2 2 2 2 2 2 2 2 2 2 2 2 2 2
left_child=7 10 3 4 5 -3 -5 11 -9 -10 -2 13 -13 18 -15 16 17 -12 -1 20 -20 22 24 -21 -22 -23
right_child=1 2 -4 6 -6 -7 -8 8 9 -11 15 12 -14 14 -16 -17 -18 -19 19 23 21 25 -24 -25 -26 -27
leaf_value=-0.053414320705688981 -0.025714285518993824 -0.022286989268924588 0.044727528181078224 -0.047040986538248002 0.039052506546525513 0.025299546603983588 -0.0012123772872359396 -0.055211746965648269 -0.038424308058999337 0.037091613726889017 -0.054427257325788736 -0.027825461074246743 -0.051994951606162555 -0.044913883942015086 -0.053657469516582047 -0.049985464697245525 -0.053642818052915431 -0.053971660400059907 -0.053753763670242143 -0.053675644409068829 -0.053536852520095241 -0.053635903342971393 -0.053428721810627293 -0.053853023821076651 -0.053677262314121559 -0.053756492529185941
leaf_weight=0.13672274886630509 0.14136318955570448 0.79080226179212354 2.5316144032403827 0.61419057147577383 1.2735785634722558 0.89617127529345453 0.47093466948717833 0.19985589198768128 0.15286211110651493 0.12978043011389673 0.12660053069703281 0.11262943560723204 0.13655962373013608 0.098411091254092642 0.14034210797399282 0.15425810113083571 0.19682357693091035 0.13033941551111639 0.19879711954854407 0.1341020145919174 0.11863122961949557 0.1297479378990829 0.15612573502585292 0.11766176414676011 0.10849600983783603 0.17573838122189045
leaf_count=39 32 32 42 56 36 31 23 41 35 37 30 30 40 31 39 42 51 34 51 34 33 35 42 29 29 46
internal_value=3.87772e-10 0.0140207 0.0210656 0.0062589 0.0185048 0.00299242 -0.0271518 -0.0457276 -0.0250659 -0.00374981 -0.0478113 -0.0513792 -0.0410707 -0.0530749 -0.0500535 -0.0529488 -0.0539561 -0.0541961 -0.0536403 -0.0536674 -0.0536416 -0.0536092 -0.0535326 -0.0537585 -0.0536039 -0.0537053
internal_weight=9.57314 7.32668 6.57729 4.04568 2.96055 1.68697 1.08513 2.24646 0.482498 0.282643 0.749385 1.76397 0.249189 1.51478 0.238753 0.608022 0.453764 0.25694 1.27602 1.1393 0.887536 0.688739 0.383253 0.251764 0.227127 0.305486
internal_count=1000 409 220 178 99 63 79 591 113 72 189 478 70 408 70 157 115 64 338 299 236 185 104 63 62 81
is_linear=0
shrinkage=0.05


Tree=28
num_leaves=26
num_cat=0
split_feature=4 8 1 1 0 0 3 0 3 0 0 8 0 8 1 0 1 0 0 3 2 0 3 1 5
split_gain=2.25977 1.17801 0.529384 0.528159 0.356949 0.304235 0.200827 0.153566 0.112335 0.131182 0.0165461 0.0130865 0.0155428 0.00172936 0.00110989 0.00188156 6.6952e-06 3.19851e-06 8.52682e-07 1.04531e-06 1.64778e-06 9.12782e-07 6.34445e-07 3.52616e-07 3.50708e-07
threshold=5250.0000000000009 4.5500000000000007 14.000000000000002 7.0000000000000009 816.00000000000011 583.00000000000011 86.000000000000014 728.00000000000011 154.00000000000003 878.00000000000011 1428.0000000000002 4.7500000000000009 826.00000000000011 4.1500000000000012 14.000000000000002 681.50000000000011 7.0000000000000009 290.50000000000006 1224.5000000000002 30.000000000000004 384.00000000000006 816.00000000000011 57.000000000000007 7.0000000000000009 6.5500000000000007
decision_type=2 2 2 2 2 2 2 2 2 2 2 2 2 2 2 2 2 2 2 2 2 2 2 2 2
left_child=8 2 5 -3 -4 6 -2 -5 11 -10 13 14 -13 16 17 -16 -7 -1 19 -19 21 24 -20 -22 -21
right_child=1 3 4 7 -6 10 -8 -9 9 -11 -12 12 -14 -15 15 -17 -18 18 22 20 23 -23 -24 -25 -26
leaf_value=-0.053169957965777115 -0.030801409929921 0.00088368006074765059 0.047081777020245096 0.04992891957551901 -0.013108254006136015 -0.05386279692696281 0.013807259325012426 0.027869290232717132 0.0031834018935129986 -0.049529317783213615 -0.037875701609029415 -0.026318656705773543 -0.051891637433126109 -0.059095747115294854 -0.044200286372529762 -0.053426586192398554 -0.053418524686990911 -0.053512797027465919 -0.053439798276952367 -0.053312941067744604 -0.053518091383188651 -0.053212641908154071 -0.0536031003516729 -0.053407242455502782 -0.053440635747692845
leaf_weight=0.12964350893162224 0.55118607589975022 1.1642440890427677 0.49951356393285085 1.790831992402673 0.48594656668137759 0.19847860746085633 0.46528666373342276 1.4101673560217021 0.2341097326716407 0.238031693152152 0.15982895367778838 0.10965581808704872 0.12968603306217119 0.25535925850272179 0.094433346181176492 0.13320674560964108 0.14806321449577808 0.18865933455526807 0.127208745572716 0.11258502909913659 0.15914562111720443 0.14794345595873892 0.11170592973940074 0.13063208037056029 0.10292781516909599
leaf_count=39 45 49 29 31 44 52 25 44 58 55 14 30 40 35 31 39 41 51 34 33 44 42 29 37 29
internal_value=-1.39299e-10 0.0135497 -0.0119946 0.0297219 0.0174011 -0.0282854 -0.010382 0.0402108 -0.0449365 -0.0233919 -0.0521762 -0.0510006 -0.0401752 -0.0559736 -0.0528023 -0.0495992 -0.053673 -0.0534046 -0.0534328 -0.0534091 -0.0533792 -0.0533083 -0.0535162 -0.0534681 -0.0533739
internal_weight=9.27848 7.12891 2.76366 4.36524 0.98546 1.7782 1.01647 3.201 2.14957 0.472141 0.76173 1.67743 0.239342 0.601901 1.43809 0.22764 0.346542 1.21045 1.08081 0.841893 0.653234 0.363456 0.238915 0.289778 0.215513
internal_count=1000 409 285 124 73 212 70 75 591 113 142 478 70 128 408 70 93 338 299 236 185 104 63 81 62
is_linear=0
shrinkage=0.05


Tree=29
num_leaves=26
num_cat=0
split_feature=4 8 0 3 3 1 3 4 0 8 0 8 1 0 1 1 5 0 0 3 2 0 3 5 3
split_gain=2.06896 1.1061 0.799998 0.664283 0.437089 0.376697 0.120851 0.139842 0.035842 0.014492 0.0167891 0.0120151 0.00129848 0.00216619 0.00078428 1.70225e-05 4.31676e-06 3.44175e-06 8.5009e-07 1.00612e-06 1.56626e-06 8.58102e-07 6.09546e-07 3.38283e-07 3.27757e-07
threshold=5250.0000000000009 4.1500000000000012 1038.5000000000002 49.000000000000007 154.00000000000003 10.000000000000002 154.00000000000003 4750.0000000000009 365.00000000000006 4.7500000000000009 826.00000000000011 4.3500000000000005 14.000000000000002 681.50000000000011 14.000000000000002 7.0000000000000009 6.4500000000000011 290.50000000000006 1224.5000000000002 30.000000000000004 384.00000000000006 816.00000000000011 57.000000000000007 6.5500000000000007 57.000000000000007
decision_type=2 2 2 2 2 2 2 2 2 2 2 2 2 2 2 2 2 2 2 2 2 2 2 2 2
left_child=6 8 3 -3 -4 -5 9 11 -2 12 -11 -8 17 -14 15 16 -10 -1 19 -19 21 23 -20 -21 -22
right_child=1 2 4 5 -6 -7 7 -9 14 10 -12 -13 13 -15 -16 -17 -18 18 22 20 24 -23 -24 -25 -26
leaf_value=-0.052962524272219161 -0.023910342377060224 -0.0049396033897806607 -0.035876878675074476 0.021921851313161947 0.019363947468628264 0.054018253732299008 -0.053486258417532712 0.012272970964003224 -0.053942531621209114 -0.024504415392270121 -0.051581959320687702 -0.03271267788867431 -0.043079404851456032 -0.053226495689245895 -0.04920780050961724 -0.053082509919255796 -0.053511181528993292 -0.053323111733442501 -0.053251518367183684 -0.053121191456579647 -0.053213894162083199 -0.053022041340764839 -0.053415890740216021 -0.05325009512478434 -0.053324375947919112
leaf_weight=0.12252305529546026 0.13850712758721773 1.0756143638864157 0.84830168704502262 1.650246281991713 0.61966043617576361 2.0494395901914686 0.14996499312110234 0.18400767585262656 0.11896058707498014 0.10711114248260845 0.12296739203156903 0.12989747058600187 0.090310319908894487 0.12594661978073418 0.14832705829758197 0.17820250429213047 0.11318838270381093 0.17883271770551779 0.12057699239812791 0.10651070484891534 0.11665570666082203 0.14000121178105474 0.1059699896723032 0.097476406255736947 0.1581169250421226
leaf_count=39 32 50 57 57 20 36 39 41 33 30 40 33 31 39 42 51 31 51 34 33 35 42 29 29 46
internal_value=4.82621e-10 0.0130526 0.0197229 0.0296464 -0.0125585 0.0397016 -0.0440433 -0.0215837 -0.046679 -0.0505833 -0.0389762 -0.0438443 -0.0525427 -0.048989 -0.0523238 -0.0534501 -0.0537322 -0.053213 -0.0532429 -0.0532187 -0.0531885 -0.0531174 -0.0533284 -0.0531828 -0.0532775
internal_weight=8.99732 6.94045 6.24326 4.7753 1.46796 3.69969 2.05687 0.46387 0.697186 1.593 0.230079 0.279862 1.36292 0.216257 0.558679 0.410351 0.232149 1.14666 1.02414 0.797594 0.618761 0.343988 0.226547 0.203987 0.274773
internal_count=1000 409 220 143 77 93 591 113 189 478 70 72 408 70 157 115 64 338 299 236 185 104 63 62 81
is_linear=0
shrinkage=0.05


Tree=30
num_leaves=27
num_cat=0
split_feature=8 0 1 1 3 3 0 4 3 8 3 5 1 0 0 4 8 4 0 8 3 3 4 3 0 5
split_gain=1.98186 0.841746 0.643766 0.628036 0.504539 0.41276 0.260602 0.274708 0.224552 0.206675 0.176607 0.120152 0.0890038 0.0235889 0.0178591 0.0029657 0.00100373 0.00199546 0.000766633 0.000567367 2.94364e-05 6.26486e-06 1.05312e-06 8.97054e-07 1.15356e-06 3.07807e-07
threshold=4.5500000000000007 1021.5000000000001 7.0000000000000009 14.000000000000002 154.00000000000003 154.00000000000003 583.00000000000011 5750.0000000000009 86.000000000000014 4.1500000000000012 86.000000000000014 5.7500000000000009 10.000000000000002 1456.5000000000002 254.50000000000003 5250.0000000000009 4.1500000000000012 5250.0000000000009 719.50000000000011 4.0500000000000007 154.00000000000003 57.000000000000007 4750.0000000000009 57.000000000000007 1108.0000000000002 6.3500000000000005
decision_type=2 2 2 2 2 2 2 2 2 2 2 2 2 2 2 2 2 2 2 2 2 2 2 2 2 2
left_child=3 2 8 6 9 12 7 11 -2 18 -4 -1 -3 16 -13 19 20 21 -5 -16 22 -18 25 24 -24 -8
right_child=1 5 10 4 -6 -7 13 -9 -10 -11 -12 14 -14 -15 15 -17 17 -19 -20 -21 -22 -23 23 -25 -26 -27
leaf_value=-0.0057347379183536312 -0.023842017764843969 -0.054342511141359157 0.033939770095090221 -0.047823756567408393 0.050180494427469427 0.025155916683893866 -0.053066072328187344 0.0072635989739012769 0.02331052547516348 0.0018149154241415449 0.061187763701529542 -0.038297074631357203 -0.020017024908857813 -0.033436727064172216 -0.053622829669025485 -0.059665368183758873 -0.05302089352502181 -0.059150660236389367 -0.05310159881033915 -0.048760713910722467 -0.053823477690860259 -0.053473829498334895 -0.053196749189074612 -0.053231465205575583 -0.052952242747832251 -0.052947352547744936
leaf_weight=0.20847811200656019 0.46668339124880753 0.35272313212044515 1.0680987051455306 0.10825392743572571 0.40938834357075393 0.43420557049103081 0.12244952446781077 0.501376950123813 0.55013167706783861 0.48336678883060813 1.3416568456741513 0.24608296388760209 0.40647989674471319 0.14826893433928479 0.13175245956517756 0.19756999588571489 0.14605902833864093 0.27074939361773431 0.18880507699213922 0.11017355788499117 0.18400327209383249 0.15994961094111204 0.097780777839943767 0.17926405719481409 0.095209694001823664 0.098529228242114186
leaf_count=24 46 59 58 31 30 24 36 34 25 33 41 43 27 19 38 19 45 37 58 35 47 45 30 55 30 31
internal_value=-1.28055e-10 0.0224373 0.0350325 -0.0253601 0.00522571 -0.0137267 -0.0379188 -0.0223609 0.00166912 -0.0183563 0.0491104 -0.038974 -0.0359645 -0.0523704 -0.0490818 -0.0551203 -0.0544437 -0.056024 -0.0511783 -0.0514086 -0.053271 -0.0532576 -0.0530996 -0.0531509 -0.0530761 -0.0530131
internal_weight=8.70749 4.61998 3.42657 4.08751 1.18981 1.19341 2.8977 1.39543 1.01682 0.780426 2.40976 0.894057 0.759203 1.50226 0.685579 0.439496 1.35399 0.576758 0.297059 0.241926 0.777237 0.306009 0.593233 0.372255 0.19299 0.220979
internal_count=1000 280 170 720 152 110 568 193 71 122 99 159 86 375 135 92 356 127 89 73 229 90 182 115 60 67
is_linear=0
shrinkage=0.05


Tree=31
num_leaves=25
num_cat=0
split_feature=4 8 1 0 3 6 3 0 8 0 8 0 1 0 1 1 6 0 7 1 8 8 0 6
split_gain=1.8083 0.967861 0.764387 0.491962 0.377289 0.193467 0.141944 0.159664 0.0823355 0.0380637 0.0136029 0.0144444 0.00123289 0.00203443 0.000714377 1.24335e-05 2.69668e-06 2.61273e-06 1.21085e-06 1.46989e-06 1.28451e-06 1.21488e-06 8.17621e-07 5.49674e-07
threshold=5250.0000000000009 4.1500000000000012 7.0000000000000009 992.50000000000011 86.000000000000014 38.500000000000007 154.00000000000003 411.00000000000006 4.4500000000000011 365.00000000000006 4.7500000000000009 826.00000000000011 14.000000000000002 681.50000000000011 14.000000000000002 7.0000000000000009 110.00000000000001 1073.0000000000002 1.0000000180025095e-35 10.000000000000002 4.4500000000000011 4.1500000000000012 836.50000000000011 38.500000000000007
decision_type=2 2 2 2 2 2 2 2 2 2 2 2 2 2 2 2 2 2 2 2 2 2 2 2
left_child=6 9 5 4 -4 -3 10 -8 -9 -2 12 -12 16 -14 15 17 18 -11 20 23 21 22 -1 -20
right_child=1 2 3 -5 -6 -7 7 8 -10 14 11 -13 13 -15 -16 -17 -18 -19 19 -21 -22 -23 -24 -25
leaf_value=-0.053048941610744221 -0.022005484993646747 0.0079960189827286872 0.021620600434902573 0.0017265760200076718 0.056036360875430152 -0.027396377038377159 0.032812587427277877 -0.05352013815074555 -0.0019001553545750648 -0.053566980799430224 -0.025414354312690582 -0.051091631871656717 -0.042758721085519182 -0.0529737807860646 -0.048913769519043769 -0.052825192423560458 -0.052787585809020821 -0.053213286104169477 -0.053039883796320603 -0.052918662973450603 -0.053101456538506876 -0.052769520176675723 -0.052856408026063464 -0.053177381155352033
leaf_weight=0.13141580880619563 0.13322567881550629 0.71014687512069918 1.514867937541567 1.1626681715715674 1.6789233507588504 0.84625531791243702 0.11444406514056016 0.2209422963205725 0.11877714935690165 0.11530946171842515 0.10521826019976277 0.11423136023222469 0.084007534664124139 0.11610861937515438 0.13536843250039965 0.16291914507746696 0.17076579877175391 0.095419102814048529 0.11931852088309824 0.12256704946048558 0.10368170798756182 0.11662669735960662 0.09500542376190424 0.18598762666806579
leaf_count=42 32 28 56 54 28 54 25 57 31 34 30 40 31 39 42 51 56 30 38 42 33 39 31 57
internal_value=-6.68335e-10 0.0124973 0.0188292 0.0295746 0.0397124 -0.0112477 -0.0426872 -0.0182651 -0.0354721 -0.0457984 -0.0502586 -0.0387803 -0.052281 -0.0486856 -0.0520258 -0.0531532 -0.0529693 -0.0534068 -0.0530048 -0.0530649 -0.0529472 -0.0529006 -0.0529682 -0.0531236
internal_weight=8.4742 6.5551 5.91286 4.35646 3.19379 1.5564 1.9191 0.454164 0.339719 0.642242 1.46493 0.21945 1.24548 0.200116 0.509016 0.373648 1.04537 0.210729 0.874603 0.427873 0.44673 0.343048 0.226421 0.305306
internal_count=1000 409 220 138 84 82 591 113 88 189 478 70 408 70 157 115 338 64 282 137 145 112 73 95
is_linear=0
shrinkage=0.05


Tree=32
num_leaves=26
num_cat=0
split_feature=8 1 0 0 3 3 4 8 4 3 0 8 3 0 4 26 4 0 0 0 3 2 0 4 1
split_gain=1.65209 1.11697 0.785241 0.646575 0.445239 0.286198 0.188448 0.165498 0.0834228 0.051685 0.0467002 0.0667557 0.026426 0.00196465 0.00162814 0.000687926 2.25622e-05 4.73852e-05 1.47294e-05 2.26911e-05 2.56165e-05 7.71552e-06 4.7313e-06 1.83633e-06 7.97768e-07
threshold=4.1500000000000012 10.000000000000002 778.00000000000011 1160.5000000000002 57.000000000000007 57.000000000000007 5750.0000000000009 4.7500000000000009 5750.0000000000009 154.00000000000003 365.00000000000006 3.8500000000000001 154.00000000000003 1382.5000000000002 5250.0000000000009 1.0000000180025095e-35 5750.0000000000009 959.00000000000011 701.50000000000011 959.00000000000011 154.00000000000003 384.00000000000006 959.00000000000011 5250.0000000000009 10.000000000000002
decision_type=2 2 2 2 2 2 2 2 2 2 2 2 2 2 2 2 2 2 2 2 2 2 2 2 2
left_child=10 2 4 5 7 8 -6 -2 -3 -7 11 -1 13 14 22 16 18 -18 21 -20 23 -12 -4 24 -21
right_child=1 3 12 -5 6 9 -8 -9 -10 -11 15 -13 -14 -15 -16 -17 17 -19 19 20 -22 -23 -24 -25 -26
leaf_value=-0.053590170455565245 -0.039519739649021911 -5.6956388992433115e-05 -0.053270837663808301 -0.012562506594651671 0.0043415825936922231 0.043260478578565784 0.040248750051330703 0.0059811468167501915 0.032384718219218608 0.059447304982213157 -0.053087167434401186 -0.0073607147377940454 -0.036145976602406586 -0.048968274679478958 -0.05852192154653945 -0.04933265180463469 -0.051583183510072642 -0.053168361888511421 -0.05238898707907419 -0.052881070343563957 -0.053812032042666283 -0.053661911724831785 -0.052824815516835745 -0.053036814606905493 -0.052689793625667072
leaf_weight=0.15743700321763743 0.55918523971922773 0.40574241813737977 0.095663577085360774 0.70248971343971778 0.74672738451044984 0.98645629445672944 0.7155365776270628 0.31098650791682303 0.38732889073435217 0.98615179932676256 0.1280966345220802 0.15493950212839991 0.27546417736448348 0.12611203663982451 0.28151762974448502 0.15578521217685182 0.09048694628290832 0.098422236740589142 0.16748422314412892 0.1095556914806366 0.092503298306837678 0.10730849229730666 0.15709905046969652 0.10954964137636125 0.10849761450663209
leaf_count=39 60 54 30 47 59 42 19 23 15 36 41 47 30 28 40 50 31 32 57 36 25 32 53 36 38
internal_value=1.73227e-09 0.0105092 -0.010464 0.0302736 0.00506022 0.0411541 0.0219122 -0.0232584 0.0157873 0.0513526 -0.047832 -0.0306602 -0.0491552 -0.0545816 -0.0559065 -0.0524257 -0.0529019 -0.0524091 -0.053015 -0.0528811 -0.0530773 -0.0533492 -0.0529936 -0.0528698 -0.0527859
